{"learner":{"attributes":{"scikit_learn":"{\"_estimator_type\": \"classifier\"}"},"feature_names":["n_urls","n_domains","n_ips","has_https","has_http","n_suspicious_keywords","email_length","n_attachments","count_suspicious_tld","tfidf_000","tfidf_0000","tfidf_0100","tfidf_0500","tfidf_06","tfidf_06 aug","tfidf_07","tfidf_07 aug","tfidf_08","tfidf_0800","tfidf_10","tfidf_100","tfidf_20","tfidf_2002","tfidf_2008","tfidf_24","tfidf_2577781","tfidf_2577781 added","tfidf________________________________________________","tfidf_account","tfidf_added","tfidf_added submissionid","tfidf_address","tfidf_aug","tfidf_aug 2008","tfidf_best","tfidf_business","tfidf_cable","tfidf_cable news","tfidf_case","tfidf_change","tfidf_click","tfidf_cnn","tfidf_cnncom","tfidf_code","tfidf_com","tfidf_company","tfidf_computer","tfidf_contact","tfidf_contenttype","tfidf_contenttype textplain","tfidf_credit","tfidf_daily","tfidf_daily 10","tfidf_date","tfidf_domain","tfidf_dont","tfidf_email","tfidf_feb","tfidf_feb 2008","tfidf_file","tfidf_free","tfidf_fri","tfidf_going","tfidf_good","tfidf_got","tfidf_great","tfidf_help","tfidf_http","tfidf_http www","tfidf_im","tfidf_information","tfidf_intelligence","tfidf_internet","tfidf_john","tfidf_know","tfidf_language","tfidf_life","tfidf_like","tfidf_line","tfidf_list","tfidf_lllp","tfidf_look","tfidf_lp","tfidf_lp lllp","tfidf_mail","tfidf_mailing","tfidf_mailing list","tfidf_make","tfidf_message","tfidf_money","tfidf_need","tfidf_network","tfidf_network lp","tfidf_new","tfidf_news","tfidf_news network","tfidf_notes","tfidf_notes submissionid","tfidf_number","tfidf_online","tfidf_order","tfidf_people","tfidf_perl","tfidf_pm","tfidf_privacy","tfidf_problem","tfidf_program","tfidf_read","tfidf_really","tfidf_receive","tfidf_replica","tfidf_report","tfidf_reports","tfidf_return","tfidf_science","tfidf_search","tfidf_security","tfidf_send","tfidf_sender","tfidf_sender virus","tfidf_settings","tfidf_site","tfidf_software","tfidf_spam","tfidf_stories","tfidf_subject","tfidf_submission","tfidf_submission notes","tfidf_submissionid","tfidf_submissionid 2577781","tfidf_sun","tfidf_textplain","tfidf_think","tfidf_thu","tfidf_thu 07","tfidf_time","tfidf_today","tfidf_total","tfidf_total submission","tfidf_university","tfidf_unsubscribe","tfidf_use","tfidf_used","tfidf_user","tfidf_using","tfidf_version","tfidf_videos","tfidf_virus","tfidf_virus total","tfidf_want","tfidf_watches","tfidf_way","tfidf_web","tfidf_wed","tfidf_wed 06","tfidf_work","tfidf_workshop","tfidf_wrote","tfidf_www","domain_age_days","host_up","common_web_ports_open","open_ports_count","filtered_ports_count","https_supported","latency","scan_duration","alternate_ip_count","asn_found","host_found","ip_found","interesting_url","has_registrar"],"feature_types":["int","int","int","int","int","int","int","int","int","float","float","float","float","float","float","float","float","float","float","float","float","float","float","float","float","float","float","float","float","float","float","float","float","float","float","float","float","float","float","float","float","float","float","float","float","float","float","float","float","float","float","float","float","float","float","float","float","float","float","float","float","float","float","float","float","float","float","float","float","float","float","float","float","float","float","float","float","float","float","float","float","float","float","float","float","float","float","float","float","float","float","float","float","float","float","float","float","float","float","float","float","float","float","float","float","float","float","float","float","float","float","float","float","float","float","float","float","float","float","float","float","float","float","float","float","float","float","float","float","float","float","float","float","float","float","float","float","float","float","float","float","float","float","float","float","float","float","float","float","float","float","float","float","float","float","float","float","float","float","int","int","int","int","int","int","float","float","int","int","int","int","int","int"],"gradient_booster":{"model":{"cats":{"enc":[],"feature_segments":[],"sorted_idx":[]},"gbtree_model_param":{"num_parallel_tree":"1","num_trees":"100"},"iteration_indptr":[0,1,2,3,4,5,6,7,8,9,10,11,12,13,14,15,16,17,18,19,20,21,22,23,24,25,26,27,28,29,30,31,32,33,34,35,36,37,38,39,40,41,42,43,44,45,46,47,48,49,50,51,52,53,54,55,56,57,58,59,60,61,62,63,64,65,66,67,68,69,70,71,72,73,74,75,76,77,78,79,80,81,82,83,84,85,86,87,88,89,90,91,92,93,94,95,96,97,98,99,100],"tree_info":[0,0,0,0,0,0,0,0,0,0,0,0,0,0,0,0,0,0,0,0,0,0,0,0,0,0,0,0,0,0,0,0,0,0,0,0,0,0,0,0,0,0,0,0,0,0,0,0,0,0,0,0,0,0,0,0,0,0,0,0,0,0,0,0,0,0,0,0,0,0,0,0,0,0,0,0,0,0,0,0,0,0,0,0,0,0,0,0,0,0,0,0,0,0,0,0,0,0,0,0],"trees":[{"base_weights":[-9.8966616E-8,1.582676E0,-8.254249E-1,1.8323891E0,-5.889149E-1,-1.2768561E0,1.7968192E0,1.8792962E0,-5.2706534E-1,-1.5261742E0,5.987716E-1,-4.8796442E-1,5.7027626E-1,5.7335865E-1,-4.8796442E-1,-1.6440517E0,5.504379E-1,5.654306E-1,-6.072041E-1,-1.7389572E0,5.4313284E-1,-5.4628164E-1,4.8234448E-1],"categories":[],"categories_nodes":[],"categories_segments":[],"categories_sizes":[],"default_left":[0,0,0,0,0,0,0,0,0,0,0,0,0,0,0,0,0,0,0,0,0,0,0],"id":0,"left_children":[1,3,5,7,-1,9,11,13,-1,15,17,-1,-1,-1,-1,19,-1,-1,-1,21,-1,-1,-1],"loss_changes":[1.8077852E3,4.2357483E2,1.0789064E3,7.799365E1,0E0,3.640232E2,5.0843536E1,5.2136353E1,0E0,2.7466602E2,3.135252E2,0E0,0E0,0E0,0E0,2.2050085E2,0E0,0E0,0E0,1.8010352E2,0E0,0E0,0E0],"parents":[2147483647,0,0,1,1,2,2,3,3,5,5,6,6,7,7,9,9,10,10,15,15,19,19],"right_children":[2,4,6,8,-1,10,12,14,-1,16,18,-1,-1,-1,-1,20,-1,-1,-1,22,-1,-1,-1],"split_conditions":[3.24E2,2.3844896E-1,1.11719385E-1,4.3079427E-1,-5.889149E-1,1.1469862E-1,1.249E3,4.299998E-2,-5.2706534E-1,1.585874E-1,7.5574666E-3,-4.8796442E-1,5.7027626E-1,5.7335865E-1,-4.8796442E-1,2.8610605E-1,5.504379E-1,5.654306E-1,-6.072041E-1,1.8217163E-1,5.4313284E-1,-5.4628164E-1,4.8234448E-1],"split_indices":[6,10,62,151,0,34,6,69,0,20,140,0,0,0,0,99,0,0,0,33,0,0,0],"split_type":[0,0,0,0,0,0,0,0,0,0,0,0,0,0,0,0,0,0,0,0,0,0,0],"sum_hessian":[1.3818124E3,4.7332938E2,9.0848303E2,4.4263907E2,3.0690308E1,7.754917E2,1.3299133E2,4.3739926E2,5.2398086E0,6.8466833E2,9.082335E1,3.4932058E0,1.2949812E2,4.3390607E2,3.4932058E0,6.619625E2,2.2705837E1,6.11311E1,2.969225E1,6.44746E2,1.7216515E1,6.297751E2,1.4970882E1],"tree_param":{"num_deleted":"0","num_feature":"173","num_nodes":"23","size_leaf_vector":"1"}},{"base_weights":[7.578273E-3,1.2448202E0,-6.1422217E-1,1.44589E0,-1.4854785E0,-9.485961E-1,1.4164864E0,1.4850701E0,-4.1125754E-1,-4.6387684E-1,-2.1500365E-1,-1.1303461E0,4.6959665E-1,-3.862983E-1,4.5142552E-1,4.5365584E-1,-3.862983E-1,-1.2465507E0,1.4823755E0,4.4792768E-1,-4.6193296E-1,-1.3181014E0,4.3194914E-1,-4.045206E-1,2.1144187E0,-4.2574084E-1,1.6979858E-1,7.2429276E-1,4.0698853E-1],"categories":[],"categories_nodes":[],"categories_segments":[],"categories_sizes":[],"default_left":[0,0,0,0,0,0,0,0,0,0,0,0,0,0,0,0,0,0,0,0,0,0,0,0,0,0,0,0,0],"id":1,"left_children":[1,3,5,7,9,11,13,15,-1,-1,-1,17,19,-1,-1,-1,-1,21,23,-1,-1,25,-1,-1,27,-1,-1,-1,-1],"loss_changes":[9.860977E2,2.375069E2,5.8059076E2,4.6160217E1,2.8894043E-1,1.8948206E2,3.0819946E1,3.1631409E1,0E0,0E0,0E0,1.9921887E2,1.7501222E2,0E0,0E0,0E0,0E0,1.2163501E2,5.3196377E1,0E0,0E0,1.1640869E2,0E0,0E0,2.0406723E0,0E0,0E0,0E0,0E0],"parents":[2147483647,0,0,1,1,2,2,3,3,4,4,5,5,6,6,7,7,11,11,12,12,17,17,18,18,21,21,24,24],"right_children":[2,4,6,8,10,12,14,16,-1,-1,-1,18,20,-1,-1,-1,-1,22,24,-1,-1,26,-1,-1,28,-1,-1,-1,-1],"split_conditions":[3.24E2,2.3844896E-1,1.11719385E-1,4.3079427E-1,2.254851E-2,1.1469862E-1,1.249E3,4.299998E-2,-4.1125754E-1,-4.6387684E-1,-2.1500365E-1,1.968984E-1,7.5574666E-3,-3.862983E-1,4.5142552E-1,4.5365584E-1,-3.862983E-1,2.8610605E-1,3.49E2,4.4792768E-1,-4.6193296E-1,2.2769554E-1,4.3194914E-1,-4.045206E-1,3E0,-4.2574084E-1,1.6979858E-1,7.2429276E-1,4.0698853E-1],"split_indices":[6,10,62,151,133,34,6,69,0,0,0,117,140,0,0,0,0,99,6,0,0,15,0,0,5,0,0,0,0],"split_type":[0,0,0,0,0,0,0,0,0,0,0,0,0,0,0,0,0,0,0,0,0,0,0,0,0,0,0,0,0],"sum_hessian":[1.2797886E3,4.2772025E2,8.520683E2,3.9882004E2,2.8900219E1,7.320609E2,1.20007385E2,3.9381494E2,5.005081E0,2.5845726E1,3.0544949E0,6.490803E2,8.29806E1,3.3637908E0,1.1664359E2,3.9045117E2,3.3637908E0,6.2194147E2,2.7138855E1,5.5147545E1,2.7833052E1,6.063022E2,1.5639293E1,4.746584E0,2.2392271E1,5.756782E2,3.0623943E1,1.447708E1,7.91519E0],"tree_param":{"num_deleted":"0","num_feature":"173","num_nodes":"29","size_leaf_vector":"1"}},{"base_weights":[1.0860233E-2,1.0826073E0,-5.0206846E-1,1.2620119E0,-1.2622542E0,-7.7224666E-1,1.2332009E0,1.2981995E0,-3.489812E-1,-3.9630723E-1,-1.759791E-1,-8.9784425E-1,9.314791E-1,-3.278008E-1,3.947998E-1,3.9712775E-1,-3.278008E-1,-1.0881999E0,2.0863266E-1,-3.9502802E-1,1.9594166E0,-1.1804527E0,3.8209167E-1,8.8492596E-1,-1.2917384E0,3.8268876E-1,9.3219024E-1,-3.7250742E-1,4.8202413E-1,4.452633E-1,-2.8000337E-1,-4.0767255E-1,-9.03059E-2],"categories":[],"categories_nodes":[],"categories_segments":[],"categories_sizes":[],"default_left":[0,0,0,0,0,0,0,0,0,0,0,0,0,0,0,0,0,0,0,0,0,0,0,0,0,0,0,0,0,0,0,0,0],"id":2,"left_children":[1,3,5,7,9,11,13,15,-1,-1,-1,17,19,-1,-1,-1,-1,21,23,-1,25,27,-1,29,31,-1,-1,-1,-1,-1,-1,-1,-1],"loss_changes":[6.0567035E2,1.516135E2,3.5030533E2,3.0628052E1,2.5136185E-1,1.3893768E2,2.0844833E1,2.1451477E1,0E0,0E0,0E0,1.2693442E2,1.0611838E2,0E0,0E0,0E0,0E0,1.1337463E2,9.159483E1,0E0,2.0483322E1,8.642523E1,0E0,6.8986824E1,1.4611168E0,0E0,0E0,0E0,0E0,0E0,0E0,0E0,0E0],"parents":[2147483647,0,0,1,1,2,2,3,3,4,4,5,5,6,6,7,7,11,11,12,12,17,17,18,18,20,20,21,21,23,23,24,24],"right_children":[2,4,6,8,10,12,14,16,-1,-1,-1,18,20,-1,-1,-1,-1,22,24,-1,26,28,-1,30,32,-1,-1,-1,-1,-1,-1,-1,-1],"split_conditions":[3.24E2,2.3844896E-1,1.11719385E-1,4.3079427E-1,2.254851E-2,1.0622181E-1,1.249E3,4.299998E-2,-3.489812E-1,-3.9630723E-1,-1.759791E-1,1.4876842E-1,3E0,-3.278008E-1,3.947998E-1,3.9712775E-1,-3.278008E-1,2.8610605E-1,2.3959083E-2,-3.9502802E-1,6.919445E-2,3.3879238E-1,3.8209167E-1,1.0985743E-2,3.795793E-1,3.8268876E-1,9.3219024E-1,-3.7250742E-1,4.8202413E-1,4.452633E-1,-2.8000337E-1,-4.0767255E-1,-9.03059E-2],"split_indices":[6,10,62,151,133,28,6,69,0,0,0,32,5,0,0,0,0,99,157,0,47,136,0,93,10,0,0,0,0,0,0,0,0],"split_type":[0,0,0,0,0,0,0,0,0,0,0,0,0,0,0,0,0,0,0,0,0,0,0,0,0,0,0,0,0,0,0,0,0],"sum_hessian":[1.0997714E3,3.556151E2,7.4415625E2,3.307698E2,2.4845304E1,6.4438214E2,9.977411E1,3.2636484E2,4.404969E0,2.1978418E1,2.8668873E0,6.005807E2,4.3801422E1,3.0104835E0,9.6763626E1,3.2335434E2,3.0104835E0,5.1243854E2,8.814216E1,1.3655033E1,3.0146389E1,4.9365665E2,1.878191E1,6.1038986E1,2.7103172E1,2.0215456E1,9.930933E0,4.835861E2,1.0070556E1,4.6046284E1,1.4992703E1,2.5034227E1,2.0689445E0],"tree_param":{"num_deleted":"0","num_feature":"173","num_nodes":"33","size_leaf_vector":"1"}},{"base_weights":[1.2104925E-2,8.964815E-1,-4.9231315E-1,1.1130313E0,-1.0325366E0,-7.5169045E-1,1.124721E0,1.1765145E0,-3.4277323E-1,-1.189312E0,3.4300238E-1,-8.53216E-1,1.3727186E0,-2.879449E-1,3.6193702E-1,1.2060449E0,-2.987966E-1,-3.7045678E-1,7.4363174E-3,-9.7350746E-1,4.4756398E-1,-3.12858E-1,1.9773071E0,1.2292148E0,-2.879449E-1,-1.1797559E0,-5.3914446E-2,1.3364345E0,-3.559802E-1,6.636925E-1,3.0132768E-1,-5.3538125E-2,3.7067324E-1,-3.6383912E-1,9.127985E-1,-1.533666E-1,5.710214E-1,4.3203318E-1,-1.960148E-1],"categories":[],"categories_nodes":[],"categories_segments":[],"categories_sizes":[],"default_left":[0,0,0,0,0,0,0,0,0,0,0,0,0,0,0,0,0,0,0,0,0,0,0,0,0,0,0,0,0,0,0,0,0,0,0,0,0,0,0],"id":3,"left_children":[1,3,5,7,9,11,13,15,-1,17,-1,19,21,-1,-1,23,-1,-1,-1,25,27,-1,29,31,-1,33,35,37,-1,-1,-1,-1,-1,-1,-1,-1,-1,-1,-1],"loss_changes":[4.0735126E2,1.3969122E2,2.4474059E2,4.411084E1,1.2955406E1,1.0938324E2,1.49217E1,1.986905E1,0E0,1.8109932E0,0E0,7.5457214E1,3.604182E1,0E0,0E0,1.5608887E1,0E0,0E0,0E0,8.323404E1,6.1533108E1,0E0,2.1114426E0,2.772461E0,0E0,5.3730804E1,7.392718E1,6.552391E0,0E0,0E0,0E0,0E0,0E0,0E0,0E0,0E0,0E0,0E0,0E0],"parents":[2147483647,0,0,1,1,2,2,3,3,4,4,5,5,6,6,7,7,9,9,11,11,12,12,15,15,19,19,20,20,22,22,23,23,25,25,26,26,27,27],"right_children":[2,4,6,8,10,12,14,16,-1,18,-1,20,22,-1,-1,24,-1,-1,-1,26,28,-1,30,32,-1,34,36,38,-1,-1,-1,-1,-1,-1,-1,-1,-1,-1,-1],"split_conditions":[3.93E2,2.3844896E-1,1.11719385E-1,2E0,3.1770535E-2,5.5016957E-2,1.249E3,2.46392E-2,-3.4277323E-1,3.49E2,3.4300238E-1,1.0368024E-1,1E0,-2.879449E-1,3.6193702E-1,4.299998E-2,-2.987966E-1,-3.7045678E-1,7.4363174E-3,1.3690971E-1,1.5772368E-4,-3.12858E-1,3.734441E-4,1.5772368E-4,-2.879449E-1,2.2839858E-1,2.6035962E-1,2.041E3,-3.559802E-1,6.636925E-1,3.0132768E-1,-5.3538125E-2,3.7067324E-1,-3.6383912E-1,9.127985E-1,-1.533666E-1,5.710214E-1,4.3203318E-1,-1.960148E-1],"split_indices":[6,10,62,5,15,89,6,35,0,6,0,117,5,0,0,69,0,0,0,32,32,0,34,32,0,153,79,6,0,0,0,0,0,0,0,0,0,0,0],"split_type":[0,0,0,0,0,0,0,0,0,0,0,0,0,0,0,0,0,0,0,0,0,0,0,0,0,0,0,0,0,0,0,0,0,0,0,0,0,0,0],"sum_hessian":[9.111586E2,3.3065567E2,5.80503E2,2.9766327E2,3.299239E1,5.0072092E2,7.978205E1,2.899803E2,7.682976E0,3.119794E1,1.7944479E0,4.7845398E2,2.2266941E1,2.6049135E0,7.717714E1,2.865304E2,3.4498925E0,3.0053463E1,1.1444783E0,4.381839E2,4.027008E1,4.3123655E0,1.7954575E1,2.8392548E2,2.6049135E0,3.5767972E2,8.050417E1,2.6200853E1,1.4069228E1,1.3435286E1,4.519289E0,1.1558533E0,2.8276962E2,3.556098E2,2.0699353E0,6.585633E1,1.4647842E1,2.5165886E1,1.0349677E0],"tree_param":{"num_deleted":"0","num_feature":"173","num_nodes":"39","size_leaf_vector":"1"}},{"base_weights":[1.3012957E-2,3.4633785E-1,-1.1295677E0,9.6616167E-1,-6.46297E-2,-1.1758646E0,2.651659E-1,1.1231408E0,-1.0167722E0,-3.196446E-1,3.4073403E-1,-1.1874632E0,6.168963E-2,1.1479915E0,-2.5771168E-1,-3.2965973E-1,-1.0361434E-1,2.864582E-2,-9.0252954E-1,-3.5855556E-1,-8.9848615E-2,-4.5056563E-2,3.467411E-1,-2.579918E-1,1.2095566E0,-1.0405046E0,5.187531E-1,3.642044E-1,-1.6861153E-1,-2.650555E-1,4.2431518E-1,-3.6646688E-1,3.4531328E-1],"categories":[],"categories_nodes":[],"categories_segments":[],"categories_sizes":[],"default_left":[0,0,0,0,0,0,0,0,0,0,0,0,0,0,0,0,0,0,0,0,0,0,0,0,0,0,0,0,0,0,0,0,0],"id":4,"left_children":[1,3,5,7,9,11,-1,13,15,17,-1,19,-1,21,-1,-1,-1,23,25,-1,-1,-1,-1,27,29,31,-1,-1,-1,-1,-1,-1,-1],"loss_changes":[2.839925E2,1.4710188E2,1.67379E1,7.279971E1,1.0690529E2,2.888916E0,0E0,1.1517273E1,5.801754E-1,5.8460434E1,0E0,7.6538086E-1,0E0,2.3193054E0,0E0,0E0,0E0,6.162853E1,4.0902893E1,0E0,0E0,0E0,0E0,6.6289314E1,1.649342E1,4.2255173E1,0E0,0E0,0E0,0E0,0E0,0E0,0E0],"parents":[2147483647,0,0,1,1,2,2,3,3,4,4,5,5,7,7,8,8,9,9,11,11,13,13,17,17,18,18,23,23,24,24,25,25],"right_children":[2,4,6,8,10,12,-1,14,16,18,-1,20,-1,22,-1,-1,-1,24,26,-1,-1,-1,-1,28,30,32,-1,-1,-1,-1,-1,-1,-1],"split_conditions":[2.3959083E-2,3.46E2,3.331177E-1,2.3844896E-1,7.750815E-2,3.7408316E-1,2.651659E-1,4.299998E-2,2.254851E-2,3.1086126E-2,3.4073403E-1,5.5016957E-2,6.168963E-2,1.5772368E-4,-2.5771168E-1,-3.2965973E-1,-1.0361434E-1,2.2181535E-1,2.4636036E-1,-3.5855556E-1,-8.9848615E-2,-4.5056563E-2,3.467411E-1,4.12E2,3.49E2,5.094706E-1,5.187531E-1,3.642044E-1,-1.6861153E-1,-2.650555E-1,4.2431518E-1,-3.6646688E-1,3.4531328E-1],"split_indices":[157,6,60,10,62,149,0,69,133,93,0,89,0,32,0,0,0,56,44,0,0,0,0,6,6,40,0,0,0,0,0,0,0],"split_type":[0,0,0,0,0,0,0,0,0,0,0,0,0,0,0,0,0,0,0,0,0,0,0,0,0,0,0,0,0,0,0,0,0],"sum_hessian":[7.436523E2,5.762421E2,1.6741014E2,2.2920412E2,3.4703802E2,1.6405394E2,3.356209E0,2.1279202E2,1.64121E1,2.868363E2,6.0201744E1,1.6282733E2,1.2265975E0,2.1057289E2,2.219128E0,1.4056638E1,2.355461E0,1.8014522E2,1.0669107E2,1.6108057E2,1.7467765E0,1.1505862E0,2.094223E2,1.4558862E2,3.45566E1,1.0195063E2,4.740438E0,2.4411297E1,1.2117733E2,2.7849054E0,3.1771692E1,9.457967E1,7.370955E0],"tree_param":{"num_deleted":"0","num_feature":"173","num_nodes":"33","size_leaf_vector":"1"}},{"base_weights":[1.5410592E-2,3.1787658E-1,-1.0626467E0,9.1746944E-1,-4.9111437E-2,-1.1088362E0,2.4450527E-1,1.0721784E0,-9.3631583E-1,-2.7195385E-1,1.0832566E0,-1.1228758E0,5.0282482E-2,1.0982763E0,-2.3308225E-1,-3.1006137E-1,-8.550966E-2,7.347843E-2,-9.7327083E-1,3.5740632E-1,-2.4102461E-1,-3.3992076E-1,-7.4837275E-2,-3.7916437E-2,3.3231944E-1,-2.9670772E-1,7.5912714E-1,-3.4484527E-1,3.1319007E-1,-2.0426686E-1,3.1806296E-1,3.2137668E-1,-3.1166464E-1],"categories":[],"categories_nodes":[],"categories_segments":[],"categories_sizes":[],"default_left":[0,0,0,0,0,0,0,0,0,0,0,0,0,0,0,0,0,0,0,0,0,0,0,0,0,0,0,0,0,0,0,0,0],"id":5,"left_children":[1,3,5,7,9,11,-1,13,15,17,19,21,-1,23,-1,-1,-1,25,27,-1,-1,-1,-1,-1,-1,29,31,-1,-1,-1,-1,-1,-1],"loss_changes":[1.9583275E2,1.03234924E2,1.2315979E1,5.2082733E1,7.3940254E1,2.4972992E0,0E0,8.808563E0,6.078625E-1,5.934235E1,1.0785454E1,8.531952E-1,0E0,2.0270996E0,0E0,0E0,0E0,4.206737E1,2.9924835E1,0E0,0E0,0E0,0E0,0E0,0E0,5.690358E1,3.370766E1,0E0,0E0,0E0,0E0,0E0,0E0],"parents":[2147483647,0,0,1,1,2,2,3,3,4,4,5,5,7,7,8,8,9,9,10,10,11,11,13,13,17,17,18,18,25,25,26,26],"right_children":[2,4,6,8,10,12,-1,14,16,18,20,22,-1,24,-1,-1,-1,26,28,-1,-1,-1,-1,-1,-1,30,32,-1,-1,-1,-1,-1,-1],"split_conditions":[2.3959083E-2,3.46E2,3.331177E-1,2.3844896E-1,5.2002247E-2,3.7408316E-1,2.4450527E-1,4.299998E-2,2.254851E-2,3.1086126E-2,9.787835E-2,3.790525E-1,5.0282482E-2,1.5772368E-4,-2.3308225E-1,-3.1006137E-1,-8.550966E-2,2.2363685E-2,5.094706E-1,3.5740632E-1,-2.4102461E-1,-3.3992076E-1,-7.4837275E-2,-3.7916437E-2,3.3231944E-1,1.4548616E-1,6.4182706E-2,-3.4484527E-1,3.1319007E-1,-2.0426686E-1,3.1806296E-1,3.2137668E-1,-3.1166464E-1],"split_indices":[157,6,60,10,76,149,0,69,133,93,10,66,0,32,0,0,0,56,40,0,0,0,0,0,0,32,12,0,0,0,0,0,0],"split_type":[0,0,0,0,0,0,0,0,0,0,0,0,0,0,0,0,0,0,0,0,0,0,0,0,0,0,0,0,0,0,0,0,0],"sum_hessian":[5.985386E2,4.6795233E2,1.3058627E2,1.7710098E2,2.9085135E2,1.2785068E2,2.7355928E0,1.6384851E2,1.3252464E1,2.4366045E2,4.71909E1,1.2657875E2,1.2719296E0,1.619686E2,1.879916E0,1.1020437E1,2.2320275E0,1.6385114E2,7.980931E1,4.4982162E1,2.2087355E0,1.24824684E2,1.7540623E0,1.1461784E0,1.6082242E2,1.06771675E2,5.7079456E1,7.379336E1,6.015959E0,8.360028E1,2.3171396E1,4.898076E1,8.098697E0],"tree_param":{"num_deleted":"0","num_feature":"173","num_nodes":"33","size_leaf_vector":"1"}},{"base_weights":[1.4519122E-2,2.910638E-1,-1.0121951E0,8.0147976E-1,-9.8252535E-2,-1.0594413E0,2.257444E-1,1.0252728E0,-9.0870845E-1,-3.248121E-1,3.1432322E-1,-1.0767672E0,4.1045547E-2,1.0505295E0,-2.0857632E-1,-3.2337865E-1,2.9778183E-1,-4.8166788E-1,1.2363477E0,-3.2696044E-1,-3.308528E-2,1.0752438E0,-2.1208324E-1,-5.952672E-1,3.871299E-1,-1.8973961E-1,4.3217018E-1,-3.190608E-2,3.2567713E-1,-2.3414405E-1,1.4262088E-1],"categories":[],"categories_nodes":[],"categories_segments":[],"categories_sizes":[],"default_left":[0,0,0,0,0,0,0,0,0,0,0,0,0,0,0,0,0,0,0,0,0,0,0,0,0,0,0,0,0,0,0],"id":6,"left_children":[1,3,5,7,9,11,-1,13,15,17,-1,19,-1,21,-1,-1,-1,23,25,-1,-1,27,-1,29,-1,-1,-1,-1,-1,-1,-1],"loss_changes":[1.3624168E2,7.518811E1,9.286583E0,6.3569557E1,5.6244514E1,2.2112885E0,0E0,7.039688E0,7.3337517E0,4.4805443E1,0E0,1.1241226E0,0E0,6.9926605E0,0E0,0E0,0E0,3.3939045E1,7.3089542E0,0E0,0E0,1.8502045E0,0E0,3.1213638E1,0E0,0E0,0E0,0E0,0E0,0E0,0E0],"parents":[2147483647,0,0,1,1,2,2,3,3,4,4,5,5,7,7,8,8,9,9,11,11,13,13,17,17,18,18,21,21,23,23],"right_children":[2,4,6,8,10,12,-1,14,16,18,-1,20,-1,22,-1,-1,-1,24,26,-1,-1,28,-1,30,-1,-1,-1,-1,-1,-1,-1],"split_conditions":[2.3959083E-2,4.12E2,3.331177E-1,2.3844896E-1,7.750815E-2,3.7408316E-1,2.257444E-1,2.46392E-2,3.1770535E-2,5.5016957E-2,3.1432322E-1,5.5016957E-2,4.1045547E-2,4.299998E-2,-2.0857632E-1,-3.2337865E-1,2.9778183E-1,1.585874E-1,1E0,-3.2696044E-1,-3.308528E-2,1.5772368E-4,-2.1208324E-1,2.2181535E-1,3.871299E-1,-1.8973961E-1,4.3217018E-1,-3.190608E-2,3.2567713E-1,-2.3414405E-1,1.4262088E-1],"split_indices":[157,6,60,10,62,149,0,35,15,89,0,89,0,69,0,0,0,20,5,0,0,32,0,56,0,0,0,0,0,0,0],"split_type":[0,0,0,0,0,0,0,0,0,0,0,0,0,0,0,0,0,0,0,0,0,0,0,0,0,0,0,0,0,0,0],"sum_hessian":[4.7780096E2,3.769786E2,1.0082237E2,1.6266145E2,2.1431715E2,9.858263E1,2.2397425E0,1.4419302E2,1.8468431E1,1.795394E2,3.4777752E1,9.7273674E1,1.3089551E0,1.4249074E2,1.7022865E0,1.7356714E1,1.1117166E0,1.6377568E2,1.5763712E1,9.584679E1,1.4268848E0,1.4089755E2,1.5931804E0,1.5453351E2,9.242173E0,1.3463434E0,1.4417368E1,1.1424979E0,1.3975505E2,1.3197455E2,2.2558964E1],"tree_param":{"num_deleted":"0","num_feature":"173","num_nodes":"31","size_leaf_vector":"1"}},{"base_weights":[1.7737592E-2,2.6837838E-1,-9.7073156E-1,7.7243507E-1,-7.4405655E-2,-1.0199956E0,2.0837405E-1,9.9093443E-1,-8.448035E-1,-2.722375E-1,1.0048436E0,-1.043411E0,2.0487446E-2,1.0181147E0,-1.9151193E-1,-3.0804098E-1,2.670192E-1,4.5142236E-1,-5.5312073E-1,-2.0054576E-1,3.37003E-1,-3.1824887E-1,-2.4095954E-2,1.0449849E0,-1.9369328E-1,9.7514457E-1,-3.0539167E-1,-7.280972E-1,3.7325528E-1,-2.6847187E-2,3.1737673E-1,3.6358586E-1,-2.5075495E-1,-2.5646886E-1,3.0929768E-1],"categories":[],"categories_nodes":[],"categories_segments":[],"categories_sizes":[],"default_left":[0,0,0,0,0,0,0,0,0,0,0,0,0,0,0,0,0,0,0,0,0,0,0,0,0,0,0,0,0,0,0,0,0,0,0],"id":7,"left_children":[1,3,5,7,9,11,-1,13,15,17,19,21,-1,23,-1,-1,-1,25,27,-1,-1,-1,-1,29,-1,31,-1,33,-1,-1,-1,-1,-1,-1,-1],"loss_changes":[9.60123E1,5.346315E1,7.1397934E0,4.507921E1,3.9749355E1,2.021843E0,0E0,5.554947E0,5.7896633E0,3.216933E1,6.4724293E0,1.1728592E0,0E0,5.562256E0,0E0,0E0,0E0,3.5206882E1,3.662387E1,0E0,0E0,0E0,0E0,1.6794052E0,0E0,1.52888565E1,0E0,2.4107735E1,0E0,0E0,0E0,0E0,0E0,0E0,0E0],"parents":[2147483647,0,0,1,1,2,2,3,3,4,4,5,5,7,7,8,8,9,9,10,10,11,11,13,13,17,17,18,18,23,23,25,25,27,27],"right_children":[2,4,6,8,10,12,-1,14,16,18,20,22,-1,24,-1,-1,-1,26,28,-1,-1,-1,-1,30,-1,32,-1,34,-1,-1,-1,-1,-1,-1,-1],"split_conditions":[2.3959083E-2,4.12E2,3.331177E-1,2.3844896E-1,5.2002247E-2,2.536716E-1,2.0837405E-1,2.46392E-2,3.1770535E-2,1.5772368E-4,4.35E2,3.790525E-1,2.0487446E-2,4.299998E-2,-1.9151193E-1,-3.0804098E-1,2.670192E-1,3.7225757E-2,2.6100492E-1,-2.0054576E-1,3.37003E-1,-3.1824887E-1,-2.4095954E-2,1.5772368E-4,-1.9369328E-1,1.18156426E-1,-3.0539167E-1,5.6279626E-2,3.7325528E-1,-2.6847187E-2,3.1737673E-1,3.6358586E-1,-2.5075495E-1,-2.5646886E-1,3.0929768E-1],"split_indices":[157,6,60,10,76,13,0,35,15,32,6,66,0,69,0,0,0,142,104,0,0,0,0,32,0,93,0,20,0,0,0,0,0,0,0],"split_type":[0,0,0,0,0,0,0,0,0,0,0,0,0,0,0,0,0,0,0,0,0,0,0,0,0,0,0,0,0,0,0,0,0,0,0],"sum_hessian":[3.854844E2,3.0809177E2,7.739266E1,1.2420196E2,1.838898E2,7.554536E1,1.847311E0,1.0975995E2,1.4442008E1,1.5603546E2,2.7854336E1,7.399453E1,1.5508252E0,1.08327934E2,1.4320148E0,1.3440177E1,1.001831E0,4.3459763E1,1.125757E2,1.5351577E0,2.6319178E1,7.258036E1,1.4141719E0,1.0697221E2,1.3557215E0,3.2288017E1,1.1171744E1,1.0313035E2,9.445353E0,1.139427E0,1.0583279E2,2.8846754E1,3.4412632E0,9.667576E1,6.454584E0],"tree_param":{"num_deleted":"0","num_feature":"173","num_nodes":"35","size_leaf_vector":"1"}},{"base_weights":[1.8590672E-2,2.4839103E-1,-9.321072E-1,8.280811E-1,-2.0007443E-2,-9.840974E-1,1.9220065E-1,9.616398E-1,-2.7379197E-1,-1.8204229E-1,3.0220082E-1,-1.0129423E0,7.133093E-2,1.0042298E0,-1.9055581E-1,-2.3816036E-1,6.1602706E-1,-3.1061524E-1,6.873594E-3,3.1156284E-1,-1.7735967E-1,-4.1966334E-1,5.809967E-1,-1.7070355E-1,3.0090785E-1,2.837465E-1,-2.7788427E-1],"categories":[],"categories_nodes":[],"categories_segments":[],"categories_sizes":[],"default_left":[0,0,0,0,0,0,0,0,0,0,0,0,0,0,0,0,0,0,0,0,0,0,0,0,0,0,0],"id":8,"left_children":[1,3,5,7,9,11,-1,13,-1,15,-1,17,-1,19,-1,21,-1,-1,-1,-1,-1,23,25,-1,-1,-1,-1],"loss_changes":[6.775879E1,3.886866E1,5.567623E0,1.9256065E1,2.875893E1,2.3146973E0,0E0,5.6640472E0,0E0,1.919632E1,0E0,1.3644485E0,0E0,4.5759277E0,0E0,2.2005386E1,0E0,0E0,0E0,0E0,0E0,2.615246E1,1.5705413E1,0E0,0E0,0E0,0E0],"parents":[2147483647,0,0,1,1,2,2,3,3,4,4,5,5,7,7,9,9,11,11,13,13,15,15,21,21,22,22],"right_children":[2,4,6,8,10,12,-1,14,-1,16,-1,18,-1,20,-1,22,-1,-1,-1,-1,-1,24,26,-1,-1,-1,-1],"split_conditions":[2.3959083E-2,3.46E2,3.331177E-1,7.1275313E-3,7.750815E-2,3.7408316E-1,1.9220065E-1,1.5911097E-2,-2.7379197E-1,5.1601815E-1,3.0220082E-1,5.5016957E-2,7.133093E-2,4.299998E-2,-1.9055581E-1,1.4548616E-1,6.1602706E-1,-3.1061524E-1,6.873594E-3,3.1156284E-1,-1.7735967E-1,5.5016957E-2,1.0985743E-2,-1.7070355E-1,3.0090785E-1,2.837465E-1,-2.7788427E-1],"split_indices":[157,6,60,22,62,149,0,81,0,22,0,89,0,69,0,32,0,0,0,0,0,89,93,0,0,0,0],"split_type":[0,0,0,0,0,0,0,0,0,0,0,0,0,0,0,0,0,0,0,0,0,0,0,0,0,0,0],"sum_hessian":[3.080907E2,2.487115E2,5.9379208E1,7.805094E1,1.7066057E2,5.7841473E1,1.5377351E0,7.29048E1,5.14614E0,1.4812135E2,2.2539217E1,5.667453E1,1.1669422E0,7.137229E1,1.5325049E0,1.4536562E2,2.755727E0,5.547316E1,1.2013706E0,7.02113E1,1.1609886E0,1.1939796E2,2.596766E1,1.08597824E2,1.0800134E1,2.1207134E1,4.7605276E0],"tree_param":{"num_deleted":"0","num_feature":"173","num_nodes":"27","size_leaf_vector":"1"}},{"base_weights":[2.2626959E-2,2.2515741E-1,-8.9498746E-1,6.68446E-1,-8.914887E-2,-9.778175E-1,2.3792578E-1,9.347258E-1,-8.305599E-1,-2.8198403E-1,3.2746837E-1,-3.0547243E-1,5.48624E-2,-1.6946244E-1,2.3587124E-1,9.773047E-1,-2.0122351E-1,-2.926767E-1,1.1218226E-1,5.141052E-1,-6.465398E-1,1.0067887E0,-1.6232902E-1,8.318115E-1,-2.8179896E-1,-7.9207474E-1,2.7040732E-1,3.1086248E-1,-1.6276088E-1,3.1607103E-1,-2.4008514E-1,-2.9551083E-1,1.73996E-1],"categories":[],"categories_nodes":[],"categories_segments":[],"categories_sizes":[],"default_left":[0,0,0,0,0,0,0,0,0,0,0,0,0,0,0,0,0,0,0,0,0,0,0,0,0,0,0,0,0,0,0,0,0],"id":9,"left_children":[1,3,5,7,9,11,13,15,17,19,-1,-1,-1,-1,-1,21,-1,-1,-1,23,25,27,-1,29,-1,31,-1,-1,-1,-1,-1,-1,-1],"loss_changes":[4.7802696E1,2.9405228E1,4.59729E0,3.5702106E1,2.8568382E1,2.2290306E0,2.1930723E0,5.766815E0,2.7629385E0,3.1528492E1,0E0,0E0,0E0,0E0,0E0,3.823906E0,0E0,0E0,0E0,1.6629093E1,1.7422834E1,3.8531265E0,0E0,1.1228395E1,0E0,1.86619E1,0E0,0E0,0E0,0E0,0E0,0E0,0E0],"parents":[2147483647,0,0,1,1,2,2,3,3,4,4,5,5,6,6,7,7,8,8,9,9,15,15,19,19,20,20,21,21,23,23,25,25],"right_children":[2,4,6,8,10,12,14,16,18,20,-1,-1,-1,-1,-1,22,-1,-1,-1,24,26,28,-1,30,-1,32,-1,-1,-1,-1,-1,-1,-1],"split_conditions":[2.3959083E-2,4.57E2,6.543784E-2,2.3844896E-1,5.2002247E-2,2.536716E-1,2E0,3.532376E-2,1.8866982E-1,1.5772368E-4,3.2746837E-1,-3.0547243E-1,5.48624E-2,-1.6946244E-1,2.3587124E-1,2.46392E-2,-2.0122351E-1,-2.926767E-1,1.1218226E-1,2.9820489E-2,3.000054E-1,4.299998E-2,-1.6232902E-1,3.7225757E-2,-2.8179896E-1,2.6659378E-1,2.7040732E-1,3.1086248E-1,-1.6276088E-1,3.1607103E-1,-2.4008514E-1,-2.9551083E-1,1.73996E-1],"split_indices":[157,6,63,10,76,13,5,106,23,32,0,0,0,0,0,35,0,0,0,100,19,69,0,142,0,15,0,0,0,0,0,0,0],"split_type":[0,0,0,0,0,0,0,0,0,0,0,0,0,0,0,0,0,0,0,0,0,0,0,0,0,0,0,0,0,0,0,0,0],"sum_hessian":[2.5513397E2,2.0962206E2,4.551192E1,8.6499245E1,1.231228E2,4.253871E1,2.9732096E0,7.377116E1,1.2728093E1,1.0649162E2,1.6631182E1,4.122566E1,1.3130525E0,1.1943362E0,1.7788733E0,7.224637E1,1.5247895E0,1.1529876E1,1.1982175E0,3.331991E1,7.317171E1,7.1200745E1,1.0456185E0,2.7693975E1,5.6259327E0,6.7329605E1,5.842109E0,7.019895E1,1.001798E0,2.4693281E1,3.0006945E0,5.9275417E1,8.054184E0],"tree_param":{"num_deleted":"0","num_feature":"173","num_nodes":"33","size_leaf_vector":"1"}},{"base_weights":[1.7969418E-2,2.0699066E-1,-8.6094964E-1,4.236732E-1,-3.9106947E-1,-2.9913056E-1,-4.7763906E-2,5.3504056E-1,-2.8311658E-1,-6.5475667E-1,2.8817075E-1,5.796399E-1,-2.2342679E-1,6.747937E-1,-6.8599665E-1,2.4087583E-1,-8.3297247E-1,2.6189068E-1,-8.0980025E-3,7.489797E-1,-2.5799116E-1,-2.8622139E-1,2.2828019E-1,-9.682989E-1,2.7517152E-1,2.4539757E-1,-2.4770598E-1,-3.051657E-1,4.575968E-2],"categories":[],"categories_nodes":[],"categories_segments":[],"categories_sizes":[],"default_left":[0,0,0,0,0,0,0,0,0,0,0,0,0,0,0,0,0,0,0,0,0,0,0,0,0,0,0,0,0],"id":10,"left_children":[1,3,5,7,9,-1,11,13,-1,15,-1,17,-1,19,21,-1,23,-1,-1,25,-1,-1,-1,27,-1,-1,-1,-1,-1],"loss_changes":[3.3717304E1,2.1801075E1,3.9299564E0,1.9240635E1,1.6639471E1,0E0,3.1441042E0,1.9985313E1,0E0,1.0588097E1,0E0,7.04489E-1,0E0,1.2389603E1,5.475726E0,0E0,9.062889E0,0E0,0E0,1.1427036E1,0E0,0E0,0E0,1.9384689E0,0E0,0E0,0E0,0E0,0E0],"parents":[2147483647,0,0,1,1,2,2,3,3,4,4,6,6,7,7,9,9,11,11,13,13,14,14,16,16,19,19,23,23],"right_children":[2,4,6,8,10,-1,12,14,-1,16,-1,18,-1,20,22,-1,24,-1,-1,26,-1,-1,-1,28,-1,-1,-1,-1,-1],"split_conditions":[2.3959083E-2,1E0,5.9246924E-2,3.532376E-2,5E0,-2.9913056E-1,1.1665245E-1,9.787835E-2,-2.8311658E-1,2.67E2,2.8817075E-1,1.2654912E-2,-2.2342679E-1,1.2547237E-1,3.285183E-2,2.4087583E-1,1.137E4,2.6189068E-1,-8.0980025E-3,1.9678247E-1,-2.5799116E-1,-2.8622139E-1,2.2828019E-1,1.9164184E-1,2.7517152E-1,2.4539757E-1,-2.4770598E-1,-3.051657E-1,4.575968E-2],"split_indices":[157,7,149,106,5,0,27,10,0,6,0,135,0,27,16,0,6,0,0,98,0,0,0,79,0,0,0,0,0],"split_type":[0,0,0,0,0,0,0,0,0,0,0,0,0,0,0,0,0,0,0,0,0,0,0,0,0,0,0,0,0],"sum_hessian":[2.0087933E2,1.6595366E2,3.4925674E1,1.22031975E2,4.392169E1,2.9722971E1,5.202703E0,1.1340447E2,8.627502E0,3.7183292E1,6.738397E0,2.8266432E0,2.3760598E0,1.02159256E2,1.1245219E1,3.6689134E0,3.351438E1,1.6094011E0,1.2172421E0,9.793725E1,4.2220078E0,9.774845E0,1.4703734E0,3.1523718E1,1.9906634E0,9.428556E1,3.6516817E0,3.0293943E1,1.2297736E0],"tree_param":{"num_deleted":"0","num_feature":"173","num_nodes":"29","size_leaf_vector":"1"}},{"base_weights":[6.99516E-3,5.387065E-1,-2.782115E-1,-8.699041E-1,7.648211E-1,-4.9589467E-1,6.367089E-1,-8.638443E-2,-2.7741507E-1,8.3483994E-1,-2.0520805E-1,-6.481679E-1,7.623068E-1,8.696679E-1,-4.258312E-1,8.8439757E-1,-1.7131685E-1,-8.300588E-1,4.5296997E-1,-1.6723257E-1,2.9811534E-1,3.0074704E-1,-4.231345E-2,4.887714E-3,-2.0208475E-1,9.882102E-1,6.608195E-2,-9.2997915E-1,3.4198868E-1,-4.1386056E-1,3.0731893E-1,3.1064308E-1,-1.5117843E-2,-9.2278175E-2,1.9780092E-1,-3.0025065E-1,2.2048703E-1,-3.1040594E-1,1.9783029E-1],"categories":[],"categories_nodes":[],"categories_segments":[],"categories_sizes":[],"default_left":[0,0,0,0,0,0,0,0,0,0,0,0,0,0,0,0,0,0,0,0,0,0,0,0,0,0,0,0,0,0,0,0,0,0,0,0,0,0,0],"id":11,"left_children":[1,3,5,7,9,11,13,-1,-1,15,-1,17,19,21,23,25,-1,27,29,-1,-1,-1,-1,-1,-1,31,33,35,-1,37,-1,-1,-1,-1,-1,-1,-1,-1,-1],"loss_changes":[2.531002E1,1.9223026E1,2.1954239E1,5.7287216E-3,5.71821E0,1.7416855E1,5.64752E0,0E0,0E0,3.9084892E0,0E0,1.6265255E1,3.6065493E0,2.5329094E0,5.04506E-1,3.9765205E0,0E0,1.4531986E1,6.3152456E0,0E0,0E0,0E0,0E0,0E0,0E0,2.1213875E0,1.6277916E0,8.484608E0,0E0,4.3055787E0,0E0,0E0,0E0,0E0,0E0,0E0,0E0,0E0,0E0],"parents":[2147483647,0,0,1,1,2,2,3,3,4,4,5,5,6,6,9,9,11,11,12,12,13,13,14,14,15,15,17,17,18,18,25,25,26,26,27,27,29,29],"right_children":[2,4,6,8,10,12,14,-1,-1,16,-1,18,20,22,24,26,-1,28,30,-1,-1,-1,-1,-1,-1,32,34,36,-1,38,-1,-1,-1,-1,-1,-1,-1,-1,-1],"split_conditions":[4.57E2,1.5772368E-4,6.2441066E-2,1.73E2,3.532376E-2,5.5016957E-2,7.870459E-2,-8.638443E-2,-2.7741507E-1,2.7925296E-2,-2.0520805E-1,2.2769554E-1,1E0,2.100968E-2,1.53E3,3.2502326E-1,-1.7131685E-1,7.936051E-1,1.0360215E0,-1.6723257E-1,2.9811534E-1,3.0074704E-1,-4.231345E-2,4.887714E-3,-2.0208475E-1,3.963268E-1,4.2499384E-1,3.9042276E-1,3.4198868E-1,1E0,3.0731893E-1,3.1064308E-1,-1.5117843E-2,-9.2278175E-2,1.9780092E-1,-3.0025065E-1,2.2048703E-1,-3.1040594E-1,1.9783029E-1],"split_indices":[6,32,117,6,106,89,141,0,0,103,0,15,5,87,6,11,0,22,166,0,0,0,0,0,0,10,11,28,0,5,0,0,0,0,0,0,0,0,0],"split_type":[0,0,0,0,0,0,0,0,0,0,0,0,0,0,0,0,0,0,0,0,0,0,0,0,0,0,0,0,0,0,0,0,0,0,0,0,0,0,0],"sum_hessian":[1.6491191E2,5.726459E1,1.0764732E2,7.526996E0,4.9737595E1,8.732778E1,2.031954E1,1.1862011E0,6.340795E0,4.7848976E1,1.8886181E0,7.833247E1,8.995304E0,1.6814524E1,3.5050175E0,4.657804E1,1.2709324E0,6.743881E1,1.0893667E1,1.131786E0,7.8635178E0,1.4868697E1,1.9458256E0,1.5943885E0,1.9106292E0,4.1150074E1,5.427971E0,6.468585E1,2.7529597E0,4.4376597E0,6.4560075E0,3.9361732E1,1.7883397E0,3.62573E0,1.8022407E0,6.242792E1,2.2579296E0,2.8342288E0,1.603431E0],"tree_param":{"num_deleted":"0","num_feature":"173","num_nodes":"39","size_leaf_vector":"1"}},{"base_weights":[8.691188E-3,4.98036E-1,-2.5684273E-1,-8.12857E-1,7.173575E-1,-4.021608E-1,2.8613475E-1,-6.8116814E-2,-2.6401448E-1,8.130429E-1,-3.6762053E-1,3.4729445E-1,-7.1325713E-1,9.0491796E-1,-1.6985895E-1,-1.9870098E-1,6.005098E-2,5.8431613E-1,-2.4078728E-1,-8.1113523E-1,2.3712894E-1,3.022785E-1,2.219646E-1,1.6781032E-1,-2.0537949E-1,-2.3954928E-1,8.5383624E-1,-3.0566132E-1,5.824936E-2,-2.0105335E-1,2.3216723E-1,3.2697523E-1,-2.0416674E-1,-2.3982817E-1,1.670833E-1],"categories":[],"categories_nodes":[],"categories_segments":[],"categories_sizes":[],"default_left":[0,0,0,0,0,0,0,0,0,0,0,0,0,0,0,0,0,0,0,0,0,0,0,0,0,0,0,0,0,0,0,0,0,0,0],"id":12,"left_children":[1,3,5,7,9,11,-1,-1,-1,13,15,17,19,21,23,-1,-1,25,-1,27,-1,-1,29,-1,-1,-1,31,-1,33,-1,-1,-1,-1,-1,-1],"loss_changes":[1.7051914E1,1.3853161E1,1.5353354E1,7.9016685E-2,4.458967E0,1.8124826E1,0E0,0E0,0E0,3.5071754E0,7.9124653E-1,6.7824955E0,8.66403E0,2.1688862E0,1.8905398E0,0E0,0E0,8.055273E0,0E0,9.391716E0,0E0,0E0,3.345816E0,0E0,0E0,0E0,6.9144583E0,0E0,5.112419E0,0E0,0E0,0E0,0E0,0E0,0E0],"parents":[2147483647,0,0,1,1,2,2,3,3,4,4,5,5,9,9,10,10,11,11,12,12,13,13,14,14,17,17,19,19,22,22,26,26,28,28],"right_children":[2,4,6,8,10,12,-1,-1,-1,14,16,18,20,22,24,-1,-1,26,-1,28,-1,-1,30,-1,-1,-1,32,-1,34,-1,-1,-1,-1,-1,-1],"split_conditions":[4.57E2,1.5772368E-4,7.662708E-2,3.104505E-1,2.3959083E-2,1.5772368E-4,2.8613475E-1,-6.8116814E-2,-2.6401448E-1,1.5239498E-1,2.2430153E-1,1.5275952E-2,7.474169E-2,3.8779902E-1,3.46E2,-1.9870098E-1,6.005098E-2,5.42E2,-2.4078728E-1,6.8392605E-2,2.3712894E-1,3.022785E-1,4.1451982E-1,1.6781032E-1,-2.0537949E-1,-2.3954928E-1,1.18156426E-1,-3.0566132E-1,5.802804E-2,-2.0105335E-1,2.3216723E-1,3.2697523E-1,-2.0416674E-1,-2.3982817E-1,1.670833E-1],"split_indices":[6,32,76,22,157,32,0,0,0,93,10,122,20,17,6,0,0,6,0,104,0,0,17,0,0,0,93,0,32,0,0,0,0,0,0],"split_type":[0,0,0,0,0,0,0,0,0,0,0,0,0,0,0,0,0,0,0,0,0,0,0,0,0,0,0,0,0,0,0,0,0,0,0],"sum_hessian":[1.2924706E2,4.5155563E1,8.409149E1,6.0841484E0,3.9071415E1,7.5675545E1,8.415949E0,1.0766578E0,5.0074906E0,3.6135246E1,2.936169E0,2.2164114E1,5.351143E1,3.311886E1,3.016387E0,1.8232704E0,1.1128986E0,1.8784176E1,3.3799384E0,5.067355E1,2.8378773E0,2.8377205E1,4.7416544E0,1.2122716E0,1.8041154E0,2.743838E0,1.6040337E1,4.0761753E1,9.911798E0,1.7303828E0,3.0112715E0,1.4152511E1,1.887827E0,3.4225366E0,6.489261E0],"tree_param":{"num_deleted":"0","num_feature":"173","num_nodes":"35","size_leaf_vector":"1"}},{"base_weights":[3.5138244E-3,-1.32598E-1,2.7262115E-1,-2.3440304E-1,8.271366E-1,-1.1045649E-1,-2.8312865E-1,5.1362015E-2,2.7592897E-1,7.0633955E-2,-7.311707E-1,1.8321499E-1,-2.5926292E-1,-2.8176087E-1,2.723976E-1,8.703524E-2,-2.478255E-1,-4.1947156E-2,1.9634442E-1],"categories":[],"categories_nodes":[],"categories_segments":[],"categories_sizes":[],"default_left":[0,0,0,0,0,0,0,0,0,0,0,0,0,0,0,0,0,0,0],"id":13,"left_children":[1,3,-1,5,7,9,-1,-1,-1,11,13,15,-1,-1,17,-1,-1,-1,-1],"loss_changes":[1.2721901E1,8.965813E0,0E0,7.100845E0,3.79066E-1,8.020245E0,0E0,0E0,0E0,6.030243E0,3.6169415E0,5.701464E0,0E0,0E0,6.4898103E-1,0E0,0E0,0E0,0E0],"parents":[2147483647,0,0,1,1,3,3,4,4,5,5,9,9,10,10,11,11,14,14],"right_children":[2,4,-1,6,8,10,-1,-1,-1,12,14,16,-1,-1,18,-1,-1,-1,-1],"split_conditions":[1.9052471E-1,7.662708E-2,2.7262115E-1,1.5239498E-1,7.34E2,2.3959083E-2,-2.8312865E-1,5.1362015E-2,2.7592897E-1,4.299998E-2,5.9246924E-2,3.7225757E-2,-2.5926292E-1,-2.8176087E-1,1.0080707E0,8.703524E-2,-2.478255E-1,-4.1947156E-2,1.9634442E-1],"split_indices":[33,76,0,93,6,157,0,0,0,69,149,142,0,0,166,0,0,0,0],"split_type":[0,0,0,0,0,0,0,0,0,0,0,0,0,0,0,0,0,0,0],"sum_hessian":[1.012745E2,8.877898E1,1.2495526E1,8.094807E1,7.830906E0,6.98916E1,1.105647E1,1.3214549E0,6.509451E0,5.4792385E1,1.5099214E1,4.9620697E1,5.1716886E0,1.2559799E1,2.539415E0,4.551267E1,4.108028E0,1.5265279E0,1.012887E0],"tree_param":{"num_deleted":"0","num_feature":"173","num_nodes":"19","size_leaf_vector":"1"}},{"base_weights":[-4.912782E-3,4.384862E-1,-2.418969E-1,-2.2657502E-1,6.7862993E-1,-4.4223955E-1,5.764218E-1,7.678833E-1,-7.165034E-2,-5.822048E-1,6.7894876E-1,7.613699E-1,-7.4077405E-2,8.631279E-1,-5.4687876E-2,-7.6112545E-1,3.632828E-1,2.5229695E-1,-9.439129E-3,2.754084E-1,-3.889213E-2,2.9332313E-1,1.2505397E-1,-9.1672134E-1,6.915981E-1,6.800196E-1,-2.344244E-1,-1.7718099E-1,1.9883178E-1,-2.978934E-1,1.7285767E-1,2.5058046E-1,5.174314E-2,2.5627363E-1,3.664293E-2],"categories":[],"categories_nodes":[],"categories_segments":[],"categories_sizes":[],"default_left":[0,0,0,0,0,0,0,0,0,0,0,0,0,0,0,0,0,0,0,0,0,0,0,0,0,0,0,0,0,0,0,0,0,0,0],"id":14,"left_children":[1,3,5,-1,7,9,11,13,-1,15,17,19,-1,21,-1,23,25,-1,-1,-1,-1,-1,27,29,31,33,-1,-1,-1,-1,-1,-1,-1,-1,-1],"loss_changes":[9.529808E0,9.569233E0,9.942359E0,0E0,2.3802986E0,7.9332E0,2.023768E0,2.3915129E0,0E0,7.5916033E0,6.9328094E-1,1.5272889E0,0E0,1.7906265E0,0E0,8.925991E0,3.2715676E0,0E0,0E0,0E0,0E0,0E0,2.002358E0,4.3933544E0,1.631366E-1,5.230081E-1,0E0,0E0,0E0,0E0,0E0,0E0,0E0,0E0,0E0],"parents":[2147483647,0,0,1,1,2,2,4,4,5,5,6,6,7,7,9,9,10,10,11,11,13,13,15,15,16,16,22,22,23,23,24,24,25,25],"right_children":[2,4,6,-1,8,10,12,14,-1,16,18,20,-1,22,-1,24,26,-1,-1,-1,-1,-1,28,30,32,34,-1,-1,-1,-1,-1,-1,-1,-1,-1],"split_conditions":[4.57E2,1.5772368E-4,6.2441066E-2,-2.2657502E-1,2.3959083E-2,5.5016957E-2,7.870459E-2,1.5239498E-1,-7.165034E-2,2.2769554E-1,2.7519451E-2,2.100968E-2,-7.4077405E-2,3.8779902E-1,-5.4687876E-2,3.418167E-1,1E0,2.5229695E-1,-9.439129E-3,2.754084E-1,-3.889213E-2,2.9332313E-1,4.1451982E-1,3.9042276E-1,6.05E2,5.158657E-2,-2.344244E-1,-1.7718099E-1,1.9883178E-1,-2.978934E-1,1.7285767E-1,2.5058046E-1,5.174314E-2,2.5627363E-1,3.664293E-2],"split_indices":[6,32,117,0,157,89,141,93,0,15,55,87,0,17,0,22,7,0,0,0,0,0,17,28,6,141,0,0,0,0,0,0,0,0,0],"split_type":[0,0,0,0,0,0,0,0,0,0,0,0,0,0,0,0,0,0,0,0,0,0,0,0,0,0,0,0,0,0,0,0,0,0,0],"sum_hessian":[8.8682846E1,3.0592947E1,5.8089897E1,4.764415E0,2.5828531E1,4.7034405E1,1.1055495E1,2.3687216E1,2.141317E0,4.224181E1,4.792595E0,9.089089E0,1.9664056E0,2.1612423E1,2.0747924E0,3.5684074E1,6.5577326E0,3.7527983E0,1.0397967E0,7.7042074E0,1.3848819E0,1.8426275E1,3.1861465E0,3.256511E1,3.1189668E0,5.454435E0,1.103298E0,1.3247149E0,1.8614317E0,3.1301147E1,1.2639608E0,1.9658899E0,1.153077E0,3.7515686E0,1.7028661E0],"tree_param":{"num_deleted":"0","num_feature":"173","num_nodes":"35","size_leaf_vector":"1"}},{"base_weights":[2.4479362E-3,-1.0990732E-1,8.223978E-1,-1.924758E-1,7.281124E-1,2.6619118E-1,6.433722E-2,-2.6823726E-1,2.4534471E-1,6.007431E-2,2.41959E-1,-3.4468487E-1,2.2961923E-1,-4.599393E-1,4.4944292E-1,-1.790812E-1,8.212149E-2,2.5959042E-1,-1.8675676E-1],"categories":[],"categories_nodes":[],"categories_segments":[],"categories_sizes":[],"default_left":[0,0,0,0,0,0,0,0,0,0,0,0,0,0,0,0,0,0,0],"id":15,"left_children":[1,3,5,7,9,-1,-1,11,-1,-1,-1,13,-1,15,17,-1,-1,-1,-1],"loss_changes":[6.7334194E0,4.5893497E0,1.5726233E-1,4.760111E0,8.5874796E-2,0E0,0E0,4.6840477E0,0E0,0E0,0E0,5.0371346E0,0E0,4.845417E0,3.745904E0,0E0,0E0,0E0,0E0],"parents":[2147483647,0,0,1,1,2,2,3,3,4,4,7,7,11,11,13,13,14,14],"right_children":[2,4,6,8,10,-1,-1,12,-1,-1,-1,14,-1,16,18,-1,-1,-1,-1],"split_conditions":[1.9052471E-1,7.662708E-2,1.0985743E-2,1.585874E-1,9.676492E-1,2.6619118E-1,6.433722E-2,4.2941377E-1,2.4534471E-1,6.007431E-2,2.41959E-1,1.01319425E-1,2.2961923E-1,6.8392605E-2,7.5574666E-3,-1.790812E-1,8.212149E-2,2.5959042E-1,-1.8675676E-1],"split_indices":[33,76,93,20,166,0,0,110,0,0,0,99,0,104,140,0,0,0,0],"split_type":[0,0,0,0,0,0,0,0,0,0,0,0,0,0,0,0,0,0,0],"sum_hessian":[7.110835E1,6.3300446E1,7.80791E0,5.8324196E1,4.9762506E0,6.639525E0,1.1683849E0,5.4938843E1,3.3853521E0,1.1032666E0,3.872984E0,5.177602E1,3.162823E0,4.5581455E1,6.1945653E0,3.856641E1,7.0150437E0,4.60204E0,1.5925257E0],"tree_param":{"num_deleted":"0","num_feature":"173","num_nodes":"19","size_leaf_vector":"1"}},{"base_weights":[2.2577936E-2,1.1115465E-1,-2.5323358E-1,2.3107216E-1,-5.591275E-1,3.1828478E-1,-2.3312712E-1,-2.62192E-1,1.1680836E-1,4.1167313E-1,-3.9847788E-1,5.021526E-1,-1.8636543E-1,-6.503938E-1,1.111508E-1,1.722681E-1,-1.943621E-1,-2.2021309E-1,-6.359039E-2],"categories":[],"categories_nodes":[],"categories_segments":[],"categories_sizes":[],"default_left":[0,0,0,0,0,0,0,0,0,0,0,0,0,0,0,0,0,0,0],"id":16,"left_children":[1,3,-1,5,7,9,-1,-1,-1,11,13,15,-1,17,-1,-1,-1,-1,-1],"loss_changes":[4.9490266E0,4.812372E0,0E0,4.6549597E0,3.0680544E0,3.2999063E0,0E0,0E0,0E0,4.2314124E0,1.3855422E0,3.6141214E0,0E0,2.093339E-2,0E0,0E0,0E0,0E0,0E0],"parents":[2147483647,0,0,1,1,3,3,4,4,5,5,9,9,10,10,11,11,13,13],"right_children":[2,4,-1,6,8,10,-1,-1,-1,12,14,16,-1,18,-1,-1,-1,-1,-1],"split_conditions":[4.299998E-2,5.629045E-2,-2.5323358E-1,1.5275952E-2,3.0330846E-1,2.0154737E-1,-2.3312712E-1,-2.62192E-1,1.1680836E-1,1.0584672E-1,2.1597745E-2,1.361376E-1,-1.8636543E-1,1.6908276E-1,1.111508E-1,1.722681E-1,-1.943621E-1,-2.2021309E-1,-6.359039E-2],"split_indices":[69,140,0,122,117,10,0,0,0,157,149,139,0,23,0,0,0,0,0],"split_type":[0,0,0,0,0,0,0,0,0,0,0,0,0,0,0,0,0,0,0],"sum_hessian":[6.2244656E1,5.726396E1,4.9806957E0,4.9129635E1,8.134326E0,4.5847794E1,3.2818403E0,6.1660876E0,1.9682386E0,4.0939377E1,4.9084187E0,3.8114452E1,2.8249238E0,3.813379E0,1.0950395E0,3.6337776E1,1.776674E0,2.636143E0,1.1772361E0],"tree_param":{"num_deleted":"0","num_feature":"173","num_nodes":"19","size_leaf_vector":"1"}},{"base_weights":[-5.3364914E-3,3.9477408E-1,-2.0995587E-1,-6.076896E-1,6.281025E-1,4.1371334E-1,-5.141394E-1,-5.726571E-2,-2.1060805E-1,7.523324E-1,-1.4171777E-2,-2.0365043E-1,6.508855E-1,-6.7763424E-1,2.1594094E-1,8.812757E-1,-3.8150705E-2,-1.22816645E-1,1.5161821E-1,8.510992E-1,-1.6534288E-1,-8.950796E-1,2.1274364E-1,2.7787554E-1,6.3597836E-2,2.9113355E-1,5.5611085E-2,-2.8732222E-1,3.2527905E-2,5.7915694E-1,-2.0803797E-1,2.1655683E-1,2.7068153E-2],"categories":[],"categories_nodes":[],"categories_segments":[],"categories_sizes":[],"default_left":[0,0,0,0,0,0,0,0,0,0,0,0,0,0,0,0,0,0,0,0,0,0,0,0,0,0,0,0,0,0,0,0,0],"id":17,"left_children":[1,3,5,7,9,11,13,-1,-1,15,17,-1,19,21,-1,23,-1,-1,-1,25,-1,27,29,-1,-1,-1,-1,-1,-1,31,-1,-1,-1],"loss_changes":[4.66552E0,4.8929653E0,7.3623714E0,2.9163599E-2,1.2982373E0,3.786951E0,5.688294E0,0E0,0E0,1.6476107E0,9.454962E-1,0E0,3.144606E0,4.697073E0,0E0,1.629057E-1,0E0,0E0,0E0,6.085143E-1,0E0,1.2923107E0,2.1869738E0,0E0,0E0,0E0,0E0,0E0,0E0,2.4001706E-1,0E0,0E0,0E0],"parents":[2147483647,0,0,1,1,2,2,3,3,4,4,5,5,6,6,9,9,10,10,12,12,13,13,15,15,19,19,21,21,22,22,29,29],"right_children":[2,4,6,8,10,12,14,-1,-1,16,18,-1,20,22,-1,24,-1,-1,-1,26,-1,28,30,-1,-1,-1,-1,-1,-1,32,-1,-1,-1],"split_conditions":[4.57E2,1.5772368E-4,1.5772368E-4,2.04E2,2.4527062E-1,5.42E2,4.913909E-1,-5.726571E-2,-2.1060805E-1,1.5239498E-1,4.1451982E-1,-2.0365043E-1,1.5275952E-2,2.2769554E-1,2.1594094E-1,2.3959083E-2,-3.8150705E-2,-1.22816645E-1,1.5161821E-1,3.1086126E-2,-1.6534288E-1,1.9461872E-1,1E0,2.7787554E-1,6.3597836E-2,2.9113355E-1,5.5611085E-2,-2.8732222E-1,3.2527905E-2,5.158657E-2,-2.0803797E-1,2.1655683E-1,2.7068153E-2],"split_indices":[6,32,32,6,17,6,19,0,0,93,17,0,122,15,0,157,0,0,0,93,0,24,7,0,0,0,0,0,0,141,0,0,0],"split_type":[0,0,0,0,0,0,0,0,0,0,0,0,0,0,0,0,0,0,0,0,0,0,0,0,0,0,0,0,0,0,0,0,0],"sum_hessian":[5.4974274E1,1.8286919E1,3.6687355E1,3.1497989E0,1.513712E1,1.190939E1,2.4777966E1,1.1393447E0,2.0104542E0,1.2540212E1,2.5969076E0,1.7920413E0,1.0117349E1,2.227713E1,2.5008354E0,1.0935016E1,1.6051961E0,1.5953966E0,1.001511E0,8.923046E0,1.1943035E0,1.7900295E1,4.376836E0,9.886681E0,1.048335E0,7.1784415E0,1.7446043E0,1.6891178E1,1.0091171E0,3.3736396E0,1.0031962E0,2.2426882E0,1.1309516E0],"tree_param":{"num_deleted":"0","num_feature":"173","num_nodes":"33","size_leaf_vector":"1"}},{"base_weights":[-4.9877097E-3,1.7723851E-1,-4.3791935E-1,3.3907127E-1,-4.0690994E-1,3.6677843E-1,-8.3302546E-1,5.251752E-1,-3.530049E-1,-7.502917E-1,2.0026733E-1,-1.5637055E-1,7.115719E-1,-9.49585E-3,-2.777531E-1,7.32707E-1,2.786809E-2,7.61355E-2,-2.0654975E-1,-2.5131252E-1,-4.4509355E-2,2.4633773E-1,5.640038E-2,8.741656E-1,-5.4091357E-2,-5.4098713E-1,2.2093548E-1,6.786339E-2,-3.1420786E-2,4.025999E-2,2.7836448E-1,1.7794574E-2,-2.1861163E-1],"categories":[],"categories_nodes":[],"categories_segments":[],"categories_sizes":[],"default_left":[0,0,0,0,0,0,0,0,0,0,0,0,0,0,0,0,0,0,0,0,0,0,0,0,0,0,0,0,0,0,0,0,0],"id":18,"left_children":[1,3,5,7,9,11,13,15,17,19,-1,-1,21,-1,-1,23,25,27,-1,-1,-1,-1,-1,29,-1,31,-1,-1,-1,-1,-1,-1,-1],"loss_changes":[3.7052903E0,3.2645578E0,4.727949E0,3.591334E0,3.3157828E0,1.9859524E0,6.873436E-1,2.1719055E0,9.453542E-1,2.047143E-1,0E0,0E0,8.781886E-2,0E0,0E0,2.0881987E0,3.3384888E0,1.220005E-1,0E0,0E0,0E0,0E0,0E0,3.967209E-1,0E0,5.6411386E-1,0E0,0E0,0E0,0E0,0E0,0E0,0E0],"parents":[2147483647,0,0,1,1,2,2,3,3,4,4,5,5,6,6,7,7,8,8,9,9,12,12,15,15,16,16,17,17,23,23,25,25],"right_children":[2,4,6,8,10,12,14,16,18,20,-1,-1,22,-1,-1,24,26,28,-1,-1,-1,-1,-1,30,-1,32,-1,-1,-1,-1,-1,-1,-1],"split_conditions":[1E0,2.1419844E-1,1.5772368E-4,7.4537126E-3,3.5104266E-1,9.924085E-1,4.33E2,7.4E2,4.57E2,1.5772368E-4,2.0026733E-1,-1.5637055E-1,8.762658E-3,-9.49585E-3,-2.777531E-1,2.246286E-1,2.399828E-2,1.0013349E0,-2.0654975E-1,-2.5131252E-1,-4.4509355E-2,2.4633773E-1,5.640038E-2,9.30079E-1,-5.4091357E-2,1.9943912E-2,2.2093548E-1,6.786339E-2,-3.1420786E-2,4.025999E-2,2.7836448E-1,1.7794574E-2,-2.1861163E-1],"split_indices":[7,22,32,61,153,166,6,6,6,32,0,0,88,0,0,93,107,166,0,0,0,0,0,166,0,23,0,0,0,0,0,0,0],"split_type":[0,0,0,0,0,0,0,0,0,0,0,0,0,0,0,0,0,0,0,0,0,0,0,0,0,0,0,0,0,0,0,0,0],"sum_hessian":[4.4983086E1,3.2073547E1,1.290954E1,2.5444057E1,6.629488E0,4.2748365E0,8.634704E0,2.0242006E1,5.2020516E0,5.252565E0,1.3769231E0,1.0524712E0,3.2223654E0,1.0354941E0,7.599209E0,1.3948001E1,6.2940063E0,2.6216664E0,2.580385E0,4.2444425E0,1.0081224E0,2.1947987E0,1.0275668E0,1.2113698E1,1.8343033E0,3.6224244E0,2.6715817E0,1.2958101E0,1.3258563E0,1.0566138E0,1.1057084E1,1.0258594E0,2.596565E0],"tree_param":{"num_deleted":"0","num_feature":"173","num_nodes":"33","size_leaf_vector":"1"}},{"base_weights":[-7.763444E-3,-1.0426759E-1,6.7278624E-1,5.8681715E-2,-4.538847E-1,5.663841E-2,2.2632198E-1,-7.307943E-2,2.0955007E-1,3.2474324E-1,-2.662909E-1,1.4511439E-1,-6.362758E-1,-1.2176052E-1,6.310177E-1,2.8007194E-1,-1.9294383E-1,-2.4402338E-1,4.0877514E-2,2.2404368E-1,4.828407E-2,1.3558656E-1,-1.4904736E-1],"categories":[],"categories_nodes":[],"categories_segments":[],"categories_sizes":[],"default_left":[0,0,0,0,0,0,0,0,0,0,0,0,0,0,0,0,0,0,0,0,0,0,0],"id":19,"left_children":[1,3,5,7,9,-1,-1,11,-1,13,-1,15,17,-1,19,21,-1,-1,-1,-1,-1,-1,-1],"loss_changes":[2.6161532E0,2.0101857E0,5.3061247E-2,2.1277936E0,4.0651975E0,0E0,0E0,2.7138352E0,0E0,1.3152418E0,0E0,1.9024642E0,9.5141244E-1,0E0,8.264387E-2,2.1634893E0,0E0,0E0,0E0,0E0,0E0,0E0,0E0],"parents":[2147483647,0,0,1,1,2,2,3,3,4,4,7,7,9,9,11,11,12,12,14,14,15,15],"right_children":[2,4,6,8,10,-1,-1,12,-1,14,-1,16,18,-1,20,22,-1,-1,-1,-1,-1,-1,-1],"split_conditions":[1.9052471E-1,1E0,2.17043E-1,6.2441066E-2,1.5772368E-4,5.663841E-2,2.2632198E-1,7.4E2,2.0955007E-1,1.054039E0,-2.662909E-1,1.9645154E-2,1.8865652E-2,-1.2176052E-1,8.762658E-3,2.4527062E-1,-1.9294383E-1,-2.4402338E-1,4.0877514E-2,2.2404368E-1,4.828407E-2,1.3558656E-1,-1.4904736E-1],"split_indices":[33,7,23,117,32,0,0,6,0,166,0,19,28,0,88,17,0,0,0,0,0,0,0],"split_type":[0,0,0,0,0,0,0,0,0,0,0,0,0,0,0,0,0,0,0,0,0,0,0],"sum_hessian":[3.7766197E1,3.3817547E1,3.9486482E0,2.3634262E1,1.0183287E1,1.0479004E0,2.9007478E0,2.0332804E1,3.3014586E0,3.7331748E0,6.4501114E0,1.5190162E1,5.142642E0,1.0066508E0,2.726524E0,1.3520091E1,1.6700702E0,4.1403766E0,1.0022656E0,1.7152712E0,1.0112529E0,1.1413242E1,2.106849E0],"tree_param":{"num_deleted":"0","num_feature":"173","num_nodes":"23","size_leaf_vector":"1"}},{"base_weights":[-1.1937389E-2,6.821087E-2,-2.1676561E-1,1.440241E-1,-2.0432724E-1,2.1258754E-1,-1.8863955E-1,3.214359E-1,-4.0372273E-1,3.9742067E-1,-1.470989E-1,-2.0579804E-1,9.142124E-2,1.4079843E-1,-1.6070168E-1],"categories":[],"categories_nodes":[],"categories_segments":[],"categories_sizes":[],"default_left":[0,0,0,0,0,0,0,0,0,0,0,0,0,0,0],"id":20,"left_children":[1,3,-1,5,-1,7,-1,9,11,13,-1,-1,-1,-1,-1],"loss_changes":[1.9838161E0,1.8839514E0,0E0,1.6901379E0,0E0,1.9898791E0,0E0,1.6827927E0,1.1300042E0,1.7684679E0,0E0,0E0,0E0,0E0,0E0],"parents":[2147483647,0,0,1,1,3,3,5,5,7,7,8,8,9,9],"right_children":[2,4,-1,6,-1,8,-1,10,12,14,-1,-1,-1,-1,-1],"split_conditions":[4.299998E-2,5.050767E-2,-2.1676561E-1,3.9806933E-4,-2.0432724E-1,2.0154737E-1,-1.8863955E-1,1.0584672E-1,1.6908276E-1,6.0631734E-1,-1.470989E-1,-2.0579804E-1,9.142124E-2,1.4079843E-1,-1.6070168E-1],"split_indices":[69,132,0,145,0,10,0,157,23,60,0,0,0,0,0],"split_type":[0,0,0,0,0,0,0,0,0,0,0,0,0,0,0],"sum_hessian":[3.2966225E1,3.0437298E1,2.5289273E0,2.8374226E1,2.063073E0,2.6727894E1,1.6463304E0,2.3122597E1,3.6052983E0,2.161021E1,1.5123849E0,2.6007838E0,1.0045143E0,2.0525465E1,1.0847464E0],"tree_param":{"num_deleted":"0","num_feature":"173","num_nodes":"15","size_leaf_vector":"1"}},{"base_weights":[-4.1548222E-2,-1.337574E-1,5.405592E-1,-2.1579708E-1,1.7421758E-1,2.1407294E-1,-6.8598213E-3,-3.0068025E-1,1.6834483E-1,-4.1672382E-1,2.8226304E-1,-5.5514103E-1,1.4360476E-1,1.7996313E-1,-9.337444E-2,-1.9481422E-1,1.1769249E-1,1.2748083E-1,-7.938108E-2],"categories":[],"categories_nodes":[],"categories_segments":[],"categories_sizes":[],"default_left":[0,0,0,0,0,0,0,0,0,0,0,0,0,0,0,0,0,0,0],"id":21,"left_children":[1,3,5,7,-1,-1,-1,9,-1,11,13,15,17,-1,-1,-1,-1,-1,-1],"loss_changes":[1.7317554E0,1.7366877E0,4.477731E-1,1.8430527E0,0E0,0E0,0E0,1.7099335E0,0E0,1.6335847E0,1.0357441E0,1.7075834E0,6.594547E-1,0E0,0E0,0E0,0E0,0E0,0E0],"parents":[2147483647,0,0,1,1,2,2,3,3,7,7,9,9,10,10,11,11,12,12],"right_children":[2,4,6,8,-1,-1,-1,10,-1,12,14,16,18,-1,-1,-1,-1,-1,-1],"split_conditions":[1.8063754E-1,5.5016957E-2,1.0985743E-2,2.4908729E-1,1.7421758E-1,2.1407294E-1,-6.8598213E-3,6.2441066E-2,1.6834483E-1,2.1657719E-1,1E0,1.6753264E-1,1.6597727E-1,1.7996313E-1,-9.337444E-2,-1.9481422E-1,1.1769249E-1,1.2748083E-1,-7.938108E-2],"split_indices":[32,89,93,153,0,0,0,117,0,15,7,65,23,0,0,0,0,0,0],"split_type":[0,0,0,0,0,0,0,0,0,0,0,0,0,0,0,0,0,0,0],"sum_hessian":[2.9916285E1,2.6490288E1,3.4259963E0,2.4387938E1,2.1023507E0,2.4172173E0,1.008779E0,2.2538548E1,1.8493894E0,1.903457E1,3.503978E0,1.5271364E1,3.7632058E0,2.2755206E0,1.2284573E0,1.4175932E1,1.0954323E0,2.203563E0,1.5596426E0],"tree_param":{"num_deleted":"0","num_feature":"173","num_nodes":"19","size_leaf_vector":"1"}},{"base_weights":[-1.2207379E-2,2.8923512E-1,-2.0066464E-1,4.8747167E-1,-1.4625819E-1,3.770226E-1,-5.0570536E-1,6.117117E-1,-4.573021E-2,1.8286674E-1,-9.140405E-2,-6.3518965E-1,1.3547266E-1,7.36615E-1,-1.7220028E-2,-8.19388E-1,2.2098178E-3,2.5147703E-1,3.0976677E-2,-2.6185027E-1,-6.350225E-2,5.876552E-2,-7.046517E-2],"categories":[],"categories_nodes":[],"categories_segments":[],"categories_sizes":[],"default_left":[0,0,0,0,0,0,0,0,0,0,0,0,0,0,0,0,0,0,0,0,0,0,0],"id":22,"left_children":[1,3,5,7,-1,9,11,13,-1,-1,-1,15,-1,17,-1,19,21,-1,-1,-1,-1,-1,-1],"loss_changes":[1.634735E0,1.9447516E0,3.3040905E0,8.351772E-1,0E0,1.2443633E0,1.7729895E0,7.1208215E-1,0E0,0E0,0E0,1.2905583E0,0E0,3.5287428E-1,0E0,9.192276E-2,2.0480925E-1,0E0,0E0,0E0,0E0,0E0,0E0],"parents":[2147483647,0,0,1,1,2,2,3,3,5,5,6,6,7,7,11,11,13,13,15,15,16,16],"right_children":[2,4,6,8,-1,10,12,14,-1,-1,-1,16,-1,18,-1,20,22,-1,-1,-1,-1,-1,-1],"split_conditions":[4.57E2,7.1275313E-3,1.5772368E-4,1.5239498E-1,-1.4625819E-1,7.958144E-2,3.000054E-1,2.3959083E-2,-4.573021E-2,1.8286674E-1,-9.140405E-2,2.2769554E-1,1.3547266E-1,3.439419E-1,-1.7220028E-2,9.316427E-2,2.698618E-1,2.5147703E-1,3.0976677E-2,-2.6185027E-1,-6.350225E-2,5.876552E-2,-7.046517E-2],"split_indices":[6,22,32,93,0,121,19,157,0,0,0,15,0,17,0,40,15,0,0,0,0,0,0],"split_type":[0,0,0,0,0,0,0,0,0,0,0,0,0,0,0,0,0,0,0,0,0,0,0],"sum_hessian":[2.6754316E1,1.0086283E1,1.6668034E1,8.332251E0,1.754032E0,5.67836E0,1.0989674E1,7.014433E0,1.3178177E0,4.313001E0,1.3653587E0,9.976668E0,1.0130048E0,5.8260055E0,1.1884276E0,7.5184407E0,2.4582276E0,4.7415686E0,1.084437E0,6.50968E0,1.008761E0,1.4486629E0,1.0095649E0],"tree_param":{"num_deleted":"0","num_feature":"173","num_nodes":"23","size_leaf_vector":"1"}},{"base_weights":[-1.2761954E-2,1.0108702E-1,-4.3415523E-1,2.1757342E-1,-4.7326565E-1,-1.9130419E-1,6.5440997E-3,3.1115873E-2,7.022436E-1,-4.1641515E-2,-1.698896E-1,-1.949178E-1,3.669218E-1,5.605291E-2,2.3818587E-1,-3.8699862E-1,1.3185944E-1,6.213006E-1,-1.1798833E-1,4.608099E-2,-1.9498967E-1,2.143429E-1,4.1293696E-2],"categories":[],"categories_nodes":[],"categories_segments":[],"categories_sizes":[],"default_left":[0,0,0,0,0,0,0,0,0,0,0,0,0,0,0,0,0,0,0,0,0,0,0],"id":23,"left_children":[1,3,5,7,9,-1,-1,11,13,-1,-1,15,17,-1,-1,19,-1,21,-1,-1,-1,-1,-1],"loss_changes":[1.2158633E0,1.4439852E0,5.1364505E-1,1.5459988E0,3.6356866E-2,0E0,0E0,1.1019429E0,7.729411E-2,0E0,0E0,1.2384908E0,1.367612E0,0E0,0E0,1.1321155E0,0E0,1.1525428E-1,0E0,0E0,0E0,0E0,0E0],"parents":[2147483647,0,0,1,1,2,2,3,3,4,4,7,7,8,8,11,11,12,12,15,15,17,17],"right_children":[2,4,6,8,10,-1,-1,12,14,-1,-1,16,18,-1,-1,20,-1,22,-1,-1,-1,-1,-1],"split_conditions":[1.18156426E-1,3.1628817E-2,2.1657719E-1,1.5231882E-1,4.6E2,-1.9130419E-1,6.5440997E-3,2.2363685E-2,9.7357035E-1,-4.1641515E-2,-1.698896E-1,1.8695161E-1,2.161128E-2,5.605291E-2,2.3818587E-1,3.93E2,1.3185944E-1,1.3648516E-2,-1.1798833E-1,4.608099E-2,-1.9498967E-1,2.143429E-1,4.1293696E-2],"split_indices":[93,11,15,32,6,0,0,56,166,0,0,153,144,0,0,6,0,66,0,0,0,0,0],"split_type":[0,0,0,0,0,0,0,0,0,0,0,0,0,0,0,0,0,0,0,0,0,0,0],"sum_hessian":[2.342879E1,1.9043789E1,4.385E0,1.6349148E1,2.694641E0,2.7562208E0,1.628779E0,1.2575446E1,3.7737021E0,1.128739E0,1.5659022E0,7.766981E0,4.808465E0,1.0288678E0,2.7448342E0,6.2613645E0,1.5056168E0,3.7398062E0,1.0686588E0,2.185121E0,4.0762434E0,2.7355592E0,1.0042472E0],"tree_param":{"num_deleted":"0","num_feature":"173","num_nodes":"23","size_leaf_vector":"1"}},{"base_weights":[-8.8503705E-3,9.0524964E-2,-5.243802E-1,1.895545E-1,-4.1296405E-1,-4.615169E-2,-1.8683428E-1,2.72216E-1,-1.575678E-1,-3.2817774E-2,-1.519239E-1,3.5457876E-1,-1.3166499E-1,4.3508646E-1,-9.753704E-2,1.5312167E-1,-6.99656E-2],"categories":[],"categories_nodes":[],"categories_segments":[],"categories_sizes":[],"default_left":[0,0,0,0,0,0,0,0,0,0,0,0,0,0,0,0,0],"id":24,"left_children":[1,3,5,7,9,-1,-1,11,-1,-1,-1,13,-1,15,-1,-1,-1],"loss_changes":[1.179581E0,1.0445548E0,3.9775014E-2,1.140317E0,4.38869E-2,0E0,0E0,1.0803355E0,0E0,0E0,0E0,9.4602144E-1,0E0,8.0227685E-1,0E0,0E0,0E0],"parents":[2147483647,0,0,1,1,2,2,3,3,4,4,7,7,11,11,13,13],"right_children":[2,4,6,8,10,-1,-1,12,-1,-1,-1,14,-1,16,-1,-1,-1],"split_conditions":[5.629045E-2,3.1628817E-2,9.66568E-1,1.5275952E-2,3.82E2,-4.615169E-2,-1.8683428E-1,3.963268E-1,-1.575678E-1,-3.2817774E-2,-1.519239E-1,3.204553E-2,-1.3166499E-1,7.958144E-2,-9.753704E-2,1.5312167E-1,-6.99656E-2],"split_indices":[140,11,166,122,6,0,0,10,0,0,0,77,0,121,0,0,0],"split_type":[0,0,0,0,0,0,0,0,0,0,0,0,0,0,0,0,0],"sum_hessian":[2.1098192E1,1.8379667E1,2.718525E0,1.5879835E1,2.4998324E0,1.1083342E0,1.6101909E0,1.4788739E1,1.0910966E0,1.0993091E0,1.4005232E0,1.3702964E1,1.0857751E0,1.2573567E1,1.1293961E0,1.1512374E1,1.0611941E0],"tree_param":{"num_deleted":"0","num_feature":"173","num_nodes":"17","size_leaf_vector":"1"}},{"base_weights":[-4.17805E-2,-1.1218259E-1,1.5178695E-1,1.7176078E-1,-3.1138024E-1,3.6791402E-1,-1.3930124E-1,1.4729832E-1,-5.181503E-1,4.801627E-1,-3.706048E-2,-1.1155097E-1,1.341276E-1,-6.7697203E-1,2.0256331E-2,6.278967E-1,-2.6349345E-2,-6.442154E-2,1.6304525E-2,-2.4087112E-1,-4.883595E-2,2.2049516E-1,4.806179E-2],"categories":[],"categories_nodes":[],"categories_segments":[],"categories_sizes":[],"default_left":[0,0,0,0,0,0,0,0,0,0,0,0,0,0,0,0,0,0,0,0,0,0,0],"id":25,"left_children":[1,3,-1,5,7,9,-1,11,13,15,-1,17,-1,19,-1,21,-1,-1,-1,-1,-1,-1,-1],"loss_changes":[8.508015E-1,1.131798E0,0E0,1.2320042E0,1.1726737E0,4.4868112E-1,0E0,3.8903558E-1,8.0745816E-1,5.5446684E-1,0E0,6.5522276E-2,0E0,2.9232454E-1,0E0,1.2490487E-1,0E0,0E0,0E0,0E0,0E0,0E0,0E0],"parents":[2147483647,0,0,1,1,3,3,4,4,5,5,7,7,8,8,9,9,11,11,13,13,15,15],"right_children":[2,4,-1,6,8,10,-1,12,14,16,-1,18,-1,20,-1,22,-1,-1,-1,-1,-1,-1,-1],"split_conditions":[5.5016957E-2,4.57E2,1.5178695E-1,7.1275313E-3,1.5772368E-4,2.3959083E-2,-1.3930124E-1,1.5805104E-1,6.8392605E-2,1.5239498E-1,-3.706048E-2,9.669936E-1,1.341276E-1,2.2769554E-1,2.0256331E-2,5.186474E-2,-2.6349345E-2,-6.442154E-2,1.6304525E-2,-2.4087112E-1,-4.883595E-2,2.2049516E-1,4.806179E-2],"split_indices":[89,6,0,22,32,157,0,56,104,93,0,166,0,15,0,17,0,0,0,0,0,0,0],"split_type":[0,0,0,0,0,0,0,0,0,0,0,0,0,0,0,0,0,0,0,0,0,0,0],"sum_hessian":[1.9591404E1,1.806469E1,1.5267135E0,7.504808E0,1.0559882E1,6.0582404E0,1.4465675E0,3.3705676E0,7.1893144E0,4.950495E0,1.1077454E0,2.1457667E0,1.224801E0,5.5329933E0,1.656321E0,3.8449638E0,1.105531E0,1.1414243E0,1.0043424E0,3.9934354E0,1.5395577E0,2.6635695E0,1.1813946E0],"tree_param":{"num_deleted":"0","num_feature":"173","num_nodes":"23","size_leaf_vector":"1"}},{"base_weights":[-3.2314193E-2,4.377707E-2,-1.7390431E-1,1.2019695E-1,-1.6375133E-1,1.9039798E-1,-1.3723475E-1,3.194727E-1,-1.6879448E-1,4.2899412E-1,-5.6945436E-2,1.3533448E-1,-1.819044E-1,1.6036403E-1,-7.949098E-3],"categories":[],"categories_nodes":[],"categories_segments":[],"categories_sizes":[],"default_left":[0,0,0,0,0,0,0,0,0,0,0,0,0,0,0],"id":26,"left_children":[1,3,-1,5,-1,7,-1,9,11,13,-1,-1,-1,-1,-1],"loss_changes":[8.067729E-1,8.496735E-1,0E0,7.450058E-1,0E0,7.573461E-1,0E0,7.23274E-1,1.5389094E0,4.842347E-1,0E0,0E0,0E0,0E0,0E0],"parents":[2147483647,0,0,1,1,3,3,5,5,7,7,8,8,9,9],"right_children":[2,4,-1,6,-1,8,-1,10,12,14,-1,-1,-1,-1,-1],"split_conditions":[4.299998E-2,5.050767E-2,-1.7390431E-1,3.31938E-1,-1.6375133E-1,1E0,-1.3723475E-1,7.5882144E-4,1.5772368E-4,1.5239498E-1,-5.6945436E-2,1.3533448E-1,-1.819044E-1,1.6036403E-1,-7.949098E-3],"split_indices":[69,132,0,151,0,7,0,10,32,93,0,0,0,0,0],"split_type":[0,0,0,0,0,0,0,0,0,0,0,0,0,0,0],"sum_hessian":[1.7761086E1,1.6401133E1,1.3599529E0,1.5224085E1,1.1770481E0,1.4172142E1,1.0519428E0,1.0507048E1,3.665095E0,8.777201E0,1.7298462E0,1.5037063E0,2.1613886E0,6.984984E0,1.7922171E0],"tree_param":{"num_deleted":"0","num_feature":"173","num_nodes":"15","size_leaf_vector":"1"}},{"base_weights":[-5.0044123E-2,-1.3295773E-1,1.24017544E-1,-2.0684806E-1,1.2523985E-1,-2.8747934E-1,1.07541434E-1,-3.8111126E-1,5.532876E-2,-4.681933E-1,5.7528358E-2,-1.6957027E-1,4.1295692E-2],"categories":[],"categories_nodes":[],"categories_segments":[],"categories_sizes":[],"default_left":[0,0,0,0,0,0,0,0,0,0,0,0,0],"id":27,"left_children":[1,3,-1,5,-1,7,-1,9,-1,11,-1,-1,-1],"loss_changes":[7.1796745E-1,7.1238244E-1,0E0,7.521221E-1,0E0,6.4545166E-1,0E0,6.479136E-1,0E0,6.6585636E-1,0E0,0E0,0E0],"parents":[2147483647,0,0,1,1,3,3,5,5,7,7,9,9],"right_children":[2,4,-1,6,-1,8,-1,10,-1,12,-1,-1,-1],"split_conditions":[1.8063754E-1,5.5016957E-2,1.24017544E-1,2.2214454E-1,1.2523985E-1,6.2441066E-2,1.07541434E-1,3.5601994E-1,5.532876E-2,1.1469862E-1,5.7528358E-2,-1.6957027E-1,4.1295692E-2],"split_indices":[32,89,0,149,0,117,0,22,0,34,0,0,0],"split_type":[0,0,0,0,0,0,0,0,0,0,0,0,0],"sum_hessian":[1.6254427E1,1.4392551E1,1.8618759E0,1.3239455E1,1.1530962E0,1.2016956E1,1.222499E0,1.0187956E1,1.829E0,9.0022545E0,1.185701E0,7.817177E0,1.185078E0],"tree_param":{"num_deleted":"0","num_feature":"173","num_nodes":"13","size_leaf_vector":"1"}},{"base_weights":[-1.8931262E-2,6.499358E-2,-1.2753336E-1,1.3716403E-1,-1.3274482E-1,3.6009428E-1,-1.6080944E-2,1.6811469E-1,-4.3957233E-2,-3.466957E-1,1.766726E-1,-1.3714623E-1,-2.7913125E-2,3.30269E-1,-9.39846E-2,1.3573225E-1,-2.6818518E-2],"categories":[],"categories_nodes":[],"categories_segments":[],"categories_sizes":[],"default_left":[0,0,0,0,0,0,0,0,0,0,0,0,0,0,0,0,0],"id":28,"left_children":[1,3,-1,5,-1,7,9,-1,-1,11,13,-1,-1,15,-1,-1,-1],"loss_changes":[5.8033335E-1,5.8460003E-1,0E0,4.59715E-1,0E0,6.3568467E-1,6.240556E-1,0E0,0E0,5.8053374E-2,5.7315934E-1,0E0,0E0,3.0902994E-1,0E0,0E0,0E0],"parents":[2147483647,0,0,1,1,3,3,5,5,6,6,9,9,10,10,13,13],"right_children":[2,4,-1,6,-1,8,10,-1,-1,12,14,-1,-1,16,-1,-1,-1],"split_conditions":[5.629045E-2,3.31938E-1,-1.2753336E-1,4.12E2,-1.3274482E-1,2.3844896E-1,5.55E2,1.6811469E-1,-4.3957233E-2,1.3138503E-1,1.5295959E0,-1.3714623E-1,-2.7913125E-2,4.912876E-2,-9.39846E-2,1.3573225E-1,-2.6818518E-2],"split_indices":[140,151,0,6,0,10,6,0,0,32,166,0,0,93,0,0,0],"split_type":[0,0,0,0,0,0,0,0,0,0,0,0,0,0,0,0,0],"sum_hessian":[1.5213752E1,1.330472E1,1.9090315E0,1.228704E1,1.0176808E0,4.455577E0,7.8314624E0,3.1171215E0,1.3384552E0,2.5901453E0,5.2413173E0,1.245483E0,1.3446624E0,4.238503E0,1.002814E0,3.222324E0,1.0161792E0],"tree_param":{"num_deleted":"0","num_feature":"173","num_nodes":"17","size_leaf_vector":"1"}},{"base_weights":[-3.188347E-2,3.785744E-2,-1.5207094E-1,1.06601804E-1,-1.2851214E-1,3.57899E-1,-7.010989E-2,5.9652824E-2,1.7560229E-1,3.3931428E-1,-3.3500165E-1,6.382044E-2,-4.1292705E-2,2.5190841E-3,1.625533E-1,-4.989516E-1,2.4355808E-2,-1.8506067E-1,-1.7835917E-2],"categories":[],"categories_nodes":[],"categories_segments":[],"categories_sizes":[],"default_left":[0,0,0,0,0,0,0,0,0,0,0,0,0,0,0,0,0,0,0],"id":29,"left_children":[1,3,-1,5,-1,7,9,11,-1,13,15,-1,-1,-1,-1,17,-1,-1,-1],"loss_changes":[5.234663E-1,5.009048E-1,0E0,6.103454E-1,0E0,3.4529817E-1,1.043563E0,1.3615404E-1,0E0,2.5448415E-1,4.3006605E-1,0E0,0E0,0E0,0E0,1.8283617E-1,0E0,0E0,0E0],"parents":[2147483647,0,0,1,1,3,3,5,5,6,6,7,7,9,9,10,10,15,15],"right_children":[2,4,-1,6,-1,8,10,12,-1,14,16,-1,-1,-1,-1,18,-1,-1,-1],"split_conditions":[4.299998E-2,3.963268E-1,-1.5207094E-1,4.57E2,-1.2851214E-1,1.6128598E-1,1.5772368E-4,1.2700894E0,1.7560229E-1,6.8997443E-3,2.2769554E-1,6.382044E-2,-4.1292705E-2,2.5190841E-3,1.625533E-1,2.352E3,2.4355808E-2,-1.8506067E-1,-1.7835917E-2],"split_indices":[69,10,0,6,0,32,32,166,0,56,15,0,0,0,0,6,0,0,0],"split_type":[0,0,0,0,0,0,0,0,0,0,0,0,0,0,0,0,0,0,0],"sum_hessian":[1.4221917E1,1.3203694E1,1.0182221E0,1.21792555E1,1.0244396E0,4.6051135E0,7.574142E0,2.5385594E0,2.066554E0,2.8649852E0,4.7091565E0,1.3853811E0,1.1531782E0,1.4831313E0,1.3818538E0,3.2356613E0,1.4734954E0,2.2329798E0,1.0026815E0],"tree_param":{"num_deleted":"0","num_feature":"173","num_nodes":"19","size_leaf_vector":"1"}},{"base_weights":[-3.154911E-2,3.5928406E-2,-1.3759486E-1,1.14706725E-1,-1.1199892E-1,2.388282E-1,-2.1938567E-1,3.4791437E-1,-8.0402985E-2,-1.5842144E-1,7.043803E-2,4.7816426E-1,-4.4069014E-2,1.9129089E-1,3.7011545E-2],"categories":[],"categories_nodes":[],"categories_segments":[],"categories_sizes":[],"default_left":[0,0,0,0,0,0,0,0,0,0,0,0,0,0,0],"id":30,"left_children":[1,3,-1,5,-1,7,9,11,-1,-1,-1,13,-1,-1,-1],"loss_changes":[4.2579988E-1,4.6815652E-1,0E0,5.4287505E-1,0E0,5.9652543E-1,6.462512E-1,5.8104366E-1,0E0,0E0,0E0,2.8961718E-1,0E0,0E0,0E0],"parents":[2147483647,0,0,1,1,3,3,5,5,6,6,7,7,11,11],"right_children":[2,4,-1,6,-1,8,10,12,-1,-1,-1,14,-1,-1,-1],"split_conditions":[1.5275952E-2,1.8344797E-1,-1.3759486E-1,1.6455849E-1,-1.1199892E-1,2.246286E-1,5.44E2,5.179261E-2,-8.0402985E-2,-1.5842144E-1,7.043803E-2,7.4E2,-4.4069014E-2,1.9129089E-1,3.7011545E-2],"split_indices":[122,11,0,22,0,93,6,61,0,0,0,6,0,0,0],"split_type":[0,0,0,0,0,0,0,0,0,0,0,0,0,0,0],"sum_hessian":[1.3202845E1,1.2192441E1,1.0104033E0,1.0827894E1,1.3645468E0,8.102726E0,2.7251685E0,6.9256797E0,1.1770464E0,1.5255941E0,1.1995744E0,5.509142E0,1.4165374E0,3.2507756E0,2.2583666E0],"tree_param":{"num_deleted":"0","num_feature":"173","num_nodes":"15","size_leaf_vector":"1"}},{"base_weights":[-4.0154986E-2,6.058861E-2,-2.881422E-1,1.9281276E-1,-9.986819E-2,4.5674846E-2,-1.6557932E-1,3.0910742E-1,-7.066178E-2,4.6127075E-1,-7.234472E-2,1.8361858E-1,1.8543306E-4],"categories":[],"categories_nodes":[],"categories_segments":[],"categories_sizes":[],"default_left":[0,0,0,0,0,0,0,0,0,0,0,0,0],"id":31,"left_children":[1,3,5,7,-1,-1,-1,9,-1,11,-1,-1,-1],"loss_changes":[3.5041818E-1,6.0025847E-1,5.514829E-1,4.8852685E-1,0E0,0E0,0E0,6.969873E-1,0E0,4.0414596E-1,0E0,0E0,0E0],"parents":[2147483647,0,0,1,1,2,2,3,3,7,7,9,9],"right_children":[2,4,6,8,-1,-1,-1,10,-1,12,-1,-1,-1],"split_conditions":[1E0,2.1419844E-1,1.5772368E-4,2.3959083E-2,-9.986819E-2,4.5674846E-2,-1.6557932E-1,2.246286E-1,-7.066178E-2,7.4E2,-7.234472E-2,1.8361858E-1,1.8543306E-4],"split_indices":[7,22,32,157,0,0,0,93,0,6,0,0,0],"split_type":[0,0,0,0,0,0,0,0,0,0,0,0,0],"sum_hessian":[1.2327399E1,9.303555E0,3.0238452E0,7.3452673E0,1.9582872E0,1.2911406E0,1.7327048E0,5.9958224E0,1.349445E0,4.823648E0,1.1721746E0,3.3864384E0,1.4372094E0],"tree_param":{"num_deleted":"0","num_feature":"173","num_nodes":"13","size_leaf_vector":"1"}},{"base_weights":[-4.3013636E-2,3.4448117E-2,-1.1510837E-1,-5.4130394E-2,9.62687E-2,5.371837E-2,-1.2847686E-1,-9.8169364E-2,1.122279E-1,-2.8747833E-1,1.0036954E-1,4.7051473E-4,-1.3771823E-1],"categories":[],"categories_nodes":[],"categories_segments":[],"categories_sizes":[],"default_left":[0,0,0,0,0,0,0,0,0,0,0,0,0],"id":32,"left_children":[1,3,-1,5,-1,7,-1,9,-1,11,-1,-1,-1],"loss_changes":[3.4327504E-1,2.9920694E-1,0E0,3.9985693E-1,0E0,4.327485E-1,0E0,6.133528E-1,0E0,2.4520802E-1,0E0,0E0,0E0],"parents":[2147483647,0,0,1,1,3,3,5,5,7,7,9,9],"right_children":[2,4,-1,6,-1,8,-1,10,-1,12,-1,-1,-1],"split_conditions":[5.629045E-2,2.1657719E-1,-1.1510837E-1,7.364795E-2,9.62687E-2,2.2363685E-2,-1.2847686E-1,1.6631965E-1,1.122279E-1,4.11E2,1.0036954E-1,4.7051473E-4,-1.3771823E-1],"split_indices":[140,15,0,93,0,56,0,153,0,6,0,0,0],"split_type":[0,0,0,0,0,0,0,0,0,0,0,0,0],"sum_hessian":[1.1507038E1,1.0107701E1,1.3993369E0,8.339802E0,1.7678987E0,7.1384315E0,1.2013705E0,5.3131013E0,1.8253306E0,3.9296584E0,1.3834428E0,1.832872E0,2.0967863E0],"tree_param":{"num_deleted":"0","num_feature":"173","num_nodes":"13","size_leaf_vector":"1"}},{"base_weights":[-3.8770974E-2,-1.0734292E-1,9.354642E-2,-1.9370435E-1,8.330447E-2,-4.3566655E-2,-1.48605E-1,-1.573919E-1,6.719173E-2,-2.8200614E-1,6.0702007E-2,-1.344378E-1,2.2165307E-3],"categories":[],"categories_nodes":[],"categories_segments":[],"categories_sizes":[],"default_left":[0,0,0,0,0,0,0,0,0,0,0,0,0],"id":33,"left_children":[1,3,-1,5,-1,7,-1,9,-1,11,-1,-1,-1],"loss_changes":[3.1953862E-1,4.0946078E-1,0E0,4.0077448E-1,0E0,2.5826064E-1,0E0,3.1368646E-1,0E0,2.2779754E-1,0E0,0E0,0E0],"parents":[2147483647,0,0,1,1,3,3,5,5,7,7,9,9],"right_children":[2,4,-1,6,-1,8,-1,10,-1,12,-1,-1,-1],"split_conditions":[1.8063754E-1,5.9246924E-2,9.354642E-2,1.6597727E-1,8.330447E-2,2.4884582E-2,-1.48605E-1,2.7941046E-2,6.719173E-2,6.1204195E-2,6.0702007E-2,-1.344378E-1,2.2165307E-3],"split_indices":[32,149,0,23,0,153,0,74,0,33,0,0,0],"split_type":[0,0,0,0,0,0,0,0,0,0,0,0,0],"sum_hessian":[1.08992195E1,9.696514E0,1.2027056E0,8.325908E0,1.3706065E0,6.323133E0,2.0027747E0,4.724701E0,1.5984321E0,3.669589E0,1.0551115E0,1.9828745E0,1.6867146E0],"tree_param":{"num_deleted":"0","num_feature":"173","num_nodes":"13","size_leaf_vector":"1"}},{"base_weights":[-2.7982794E-2,5.9920624E-2,-2.9156944E-1,1.5535915E-1,-7.634938E-2,-1.2928747E-1,-1.7865703E-3,2.5942633E-1,-3.4715272E-2,4.2686185E-1,-5.32101E-2,1.520335E-1,2.1573033E-2],"categories":[],"categories_nodes":[],"categories_segments":[],"categories_sizes":[],"default_left":[0,0,0,0,0,0,0,0,0,0,0,0,0],"id":34,"left_children":[1,3,5,7,-1,-1,-1,9,-1,11,-1,-1,-1],"loss_changes":[2.813988E-1,3.2075992E-1,1.176317E-1,2.503512E-1,0E0,0E0,0E0,5.110209E-1,0E0,9.3939126E-2,0E0,0E0,0E0],"parents":[2147483647,0,0,1,1,2,2,3,3,7,7,9,9],"right_children":[2,4,6,8,-1,-1,-1,10,-1,12,-1,-1,-1],"split_conditions":[1.18156426E-1,2.3959083E-2,2.254851E-2,1E0,-7.634938E-2,-1.2928747E-1,-1.7865703E-3,2.0148982E-1,-3.4715272E-2,1.8164709E-1,-5.32101E-2,1.520335E-1,2.1573033E-2],"split_indices":[93,157,133,7,0,0,0,22,0,23,0,0,0],"split_type":[0,0,0,0,0,0,0,0,0,0,0,0,0],"sum_hessian":[1.0390845E1,8.371656E0,2.019189E0,6.8103337E0,1.561323E0,1.0149695E0,1.0042193E0,4.952162E0,1.8581719E0,3.596324E0,1.355838E0,2.5862892E0,1.0100349E0],"tree_param":{"num_deleted":"0","num_feature":"173","num_nodes":"13","size_leaf_vector":"1"}},{"base_weights":[-3.0579308E-2,-9.773409E-2,8.832821E-2,-1.78761E-1,7.38002E-2,-3.0352864E-1,9.672203E-2,-3.760168E-1,9.771932E-3,7.169663E-2,-1.955944E-2,3.0494288E-3,-1.6246434E-1],"categories":[],"categories_nodes":[],"categories_segments":[],"categories_sizes":[],"default_left":[0,0,0,0,0,0,0,0,0,0,0,0,0],"id":35,"left_children":[1,3,-1,5,-1,7,9,11,-1,-1,-1,-1,-1],"loss_changes":[2.6788056E-1,3.177572E-1,0E0,3.2268193E-1,0E0,1.6123939E-1,9.433165E-2,3.3217221E-1,0E0,0E0,0E0,0E0,0E0],"parents":[2147483647,0,0,1,1,3,3,5,5,6,6,7,7],"right_children":[2,4,-1,6,-1,8,10,12,-1,-1,-1,-1,-1],"split_conditions":[1.8063754E-1,5.9246924E-2,8.832821E-2,2.2363685E-2,7.38002E-2,1.544762E-1,1E0,3.93E2,9.771932E-3,7.169663E-2,-1.955944E-2,3.0494288E-3,-1.6246434E-1],"split_indices":[32,149,0,56,0,153,7,6,0,0,0,0,0],"split_type":[0,0,0,0,0,0,0,0,0,0,0,0,0],"sum_hessian":[9.955177E0,8.829964E0,1.1252131E0,7.533964E0,1.2959999E0,5.1153784E0,2.4185855E0,4.110167E0,1.0052117E0,1.0340655E0,1.38452E0,1.5147856E0,2.5953813E0],"tree_param":{"num_deleted":"0","num_feature":"173","num_nodes":"13","size_leaf_vector":"1"}},{"base_weights":[-1.7837452E-2,5.2239437E-2,-9.8016754E-2,1.2684135E-1,-7.833746E-2,2.037261E-1,-5.5755872E-2,2.7734497E-1,-3.7111737E-2,3.727759E-1,-2.610857E-2,1.3347591E-1,3.201309E-2],"categories":[],"categories_nodes":[],"categories_segments":[],"categories_sizes":[],"default_left":[0,0,0,0,0,0,0,0,0,0,0,0,0],"id":36,"left_children":[1,3,-1,5,-1,7,-1,9,-1,11,-1,-1,-1],"loss_changes":[2.4578014E-1,2.5461116E-1,0E0,2.3802407E-1,0E0,2.0689341E-1,0E0,2.4642622E-1,0E0,4.976225E-2,0E0,0E0,0E0],"parents":[2147483647,0,0,1,1,3,3,5,5,7,7,9,9],"right_children":[2,4,-1,6,-1,8,-1,10,-1,12,-1,-1,-1],"split_conditions":[5.629045E-2,3.1628817E-2,-9.8016754E-2,2.0154737E-1,-7.833746E-2,6.942081E-2,-5.5755872E-2,7.364795E-2,-3.7111737E-2,1E0,-2.610857E-2,1.3347591E-1,3.201309E-2],"split_indices":[140,11,0,10,0,60,0,93,0,5,0,0,0],"split_type":[0,0,0,0,0,0,0,0,0,0,0,0,0],"sum_hessian":[9.566178E0,8.474453E0,1.0917253E0,7.3256736E0,1.1487792E0,6.159634E0,1.1660391E0,5.15383E0,1.0058042E0,4.0658956E0,1.0879344E0,2.669769E0,1.3961266E0],"tree_param":{"num_deleted":"0","num_feature":"173","num_nodes":"13","size_leaf_vector":"1"}},{"base_weights":[-2.4871422E-2,-9.346885E-2,6.546563E-2,-1.7395274E-1,6.370373E-2,-2.581681E-1,5.0232396E-2,-3.4398127E-1,-3.7114727E-3,-1.1326643E-2,-1.6811508E-1],"categories":[],"categories_nodes":[],"categories_segments":[],"categories_sizes":[],"default_left":[0,0,0,0,0,0,0,0,0,0,0],"id":37,"left_children":[1,3,-1,5,-1,7,-1,9,-1,-1,-1],"loss_changes":[1.911398E-1,2.5072482E-1,0E0,2.5672716E-1,0E0,1.2968126E-1,0E0,2.8827524E-1,0E0,0E0,0E0],"parents":[2147483647,0,0,1,1,3,3,5,5,7,7],"right_children":[2,4,-1,6,-1,8,-1,10,-1,-1,-1],"split_conditions":[2.1657719E-1,2.4908729E-1,6.546563E-2,4.5281734E-2,6.370373E-2,2.2363685E-2,5.0232396E-2,4.47E2,-3.7114727E-3,-1.1326643E-2,-1.6811508E-1],"split_indices":[15,153,0,74,0,56,0,6,0,0,0],"split_type":[0,0,0,0,0,0,0,0,0,0,0],"sum_hessian":[9.239246E0,7.685873E0,1.5533736E0,6.4258966E0,1.2599766E0,5.3499494E0,1.0759473E0,3.6694171E0,1.6805321E0,2.0056865E0,1.6637306E0],"tree_param":{"num_deleted":"0","num_feature":"173","num_nodes":"11","size_leaf_vector":"1"}},{"base_weights":[-2.0083051E-2,6.1645806E-2,-7.660407E-2,1.3396133E-1,-6.5396994E-2,-1.1995849E-2,1.3333225E-1,-7.2022535E-2,1.6082995E-1,1.4158857E-1,-9.018114E-2],"categories":[],"categories_nodes":[],"categories_segments":[],"categories_sizes":[],"default_left":[0,0,0,0,0,0,0,0,0,0,0],"id":38,"left_children":[1,3,-1,5,-1,7,-1,-1,9,-1,-1],"loss_changes":[2.0686725E-1,1.9467482E-1,0E0,3.2802495E-1,0E0,2.679252E-1,0E0,0E0,7.029999E-1,0E0,0E0],"parents":[2147483647,0,0,1,1,3,3,5,5,8,8],"right_children":[2,4,-1,6,-1,8,-1,-1,10,-1,-1],"split_conditions":[1.18156426E-1,3.1628817E-2,-7.660407E-2,1.5231882E-1,-6.5396994E-2,5.44E2,1.3333225E-1,-7.2022535E-2,3.3261455E-4,1.4158857E-1,-9.018114E-2],"split_indices":[93,11,0,32,0,6,0,0,23,0,0],"split_type":[0,0,0,0,0,0,0,0,0,0,0],"sum_hessian":[8.940073E0,7.182796E0,1.7572768E0,6.12085E0,1.061946E0,4.8174963E0,1.3033537E0,1.9090265E0,2.90847E0,1.7235274E0,1.1849425E0],"tree_param":{"num_deleted":"0","num_feature":"173","num_nodes":"11","size_leaf_vector":"1"}},{"base_weights":[-1.6554484E-2,6.408653E-2,-2.0039836E-1,1.7175026E-1,-7.567884E-2,3.9272655E-2,-1.258381E-1,3.0644605E-1,-6.671135E-2,4.0831625E-1,-1.042174E-2,1.538126E-1,2.5170527E-2],"categories":[],"categories_nodes":[],"categories_segments":[],"categories_sizes":[],"default_left":[0,0,0,0,0,0,0,0,0,0,0,0,0],"id":39,"left_children":[1,3,5,7,-1,-1,-1,9,-1,11,-1,-1,-1],"loss_changes":[1.5392798E-1,2.9443258E-1,2.8308275E-1,3.9173496E-1,0E0,0E0,0E0,1.8669665E-1,0E0,8.908278E-2,0E0,0E0,0E0],"parents":[2147483647,0,0,1,1,2,2,3,3,7,7,9,9],"right_children":[2,4,6,8,-1,-1,-1,10,-1,12,-1,-1,-1],"split_conditions":[1E0,2.1419844E-1,1.5020636E-2,7.4537126E-3,-7.567884E-2,3.9272655E-2,-1.258381E-1,1.5239498E-1,-6.671135E-2,6.09E2,-1.042174E-2,1.538126E-1,2.5170527E-2],"split_indices":[7,22,32,61,0,0,0,93,0,6,0,0,0],"split_type":[0,0,0,0,0,0,0,0,0,0,0,0,0],"sum_hessian":[8.516477E0,6.372611E0,2.1438653E0,5.0955276E0,1.2770834E0,1.0134877E0,1.1303775E0,3.963434E0,1.1320939E0,2.900617E0,1.0628171E0,1.7553539E0,1.145263E0],"tree_param":{"num_deleted":"0","num_feature":"173","num_nodes":"13","size_leaf_vector":"1"}},{"base_weights":[-1.8041758E-2,5.445535E-2,-7.524373E-2,1.6090062E-1,-9.864069E-2,2.8354028E-1,-4.7342494E-2,1.34281255E-2,3.6491302E-1,1.3590136E-1,1.894341E-2],"categories":[],"categories_nodes":[],"categories_segments":[],"categories_sizes":[],"default_left":[0,0,0,0,0,0,0,0,0,0,0],"id":40,"left_children":[1,3,-1,5,-1,7,-1,-1,9,-1,-1],"loss_changes":[1.6822565E-1,3.7135032E-1,0E0,3.0977088E-1,0E0,8.5751325E-2,0E0,0E0,7.1846545E-2,0E0,0E0],"parents":[2147483647,0,0,1,1,3,3,5,5,8,8],"right_children":[2,4,-1,6,-1,8,-1,-1,10,-1,-1],"split_conditions":[2.3959083E-2,7.5882144E-4,-7.524373E-2,1E0,-9.864069E-2,5.802804E-2,-4.7342494E-2,1.34281255E-2,4.9370553E-2,1.3590136E-1,1.894341E-2],"split_indices":[157,10,0,7,0,32,0,0,93,0,0],"split_type":[0,0,0,0,0,0,0,0,0,0,0],"sum_hessian":[8.159452E0,6.8058167E0,1.3536359E0,5.7805214E0,1.025295E0,4.2539444E0,1.5265769E0,1.4751971E0,2.7787473E0,1.7629454E0,1.0158019E0],"tree_param":{"num_deleted":"0","num_feature":"173","num_nodes":"11","size_leaf_vector":"1"}},{"base_weights":[-1.8362997E-2,-7.352191E-2,5.940302E-2,1.8759461E-2,-1.02349535E-1,6.4483814E-2,-1.2900068E-1,7.328752E-2,-1.1378724E-1],"categories":[],"categories_nodes":[],"categories_segments":[],"categories_sizes":[],"default_left":[0,0,0,0,0,0,0,0,0],"id":41,"left_children":[1,3,-1,5,-1,-1,7,-1,-1],"loss_changes":[1.2051237E-1,1.9913486E-1,0E0,2.2341946E-1,0E0,0E0,5.1080906E-1,0E0,0E0],"parents":[2147483647,0,0,1,1,3,3,6,6],"right_children":[2,4,-1,6,-1,-1,8,-1,-1],"split_conditions":[9.950169E-2,7.5882144E-4,5.940302E-2,4.57E2,-1.02349535E-1,6.4483814E-2,1.5772368E-4,7.328752E-2,-1.1378724E-1],"split_indices":[149,10,0,6,0,0,32,0,0],"split_type":[0,0,0,0,0,0,0,0,0],"sum_hessian":[7.8776846E0,6.803508E0,1.0741769E0,5.750639E0,1.0528687E0,2.275147E0,3.475492E0,1.4045931E0,2.070899E0],"tree_param":{"num_deleted":"0","num_feature":"173","num_nodes":"9","size_leaf_vector":"1"}},{"base_weights":[-1.6276462E-2,5.4763466E-2,-6.134138E-2,1.3548446E-1,-5.607666E-2,2.549922E-1,-5.0079595E-2,-5.005887E-3,1.0399933E-1],"categories":[],"categories_nodes":[],"categories_segments":[],"categories_sizes":[],"default_left":[0,0,0,0,0,0,0,0,0],"id":42,"left_children":[1,3,-1,5,-1,7,-1,-1,-1],"loss_changes":[1.2626414E-1,1.6260925E-1,0E0,2.541676E-1,0E0,1.20153725E-1,0E0,0E0,0E0],"parents":[2147483647,0,0,1,1,3,3,5,5],"right_children":[2,4,-1,6,-1,8,-1,-1,-1],"split_conditions":[1.18156426E-1,2.3959083E-2,-6.134138E-2,1.5067034E0,-5.607666E-2,9.609225E-1,-5.0079595E-2,-5.005887E-3,1.0399933E-1],"split_indices":[93,157,0,166,0,166,0,0,0],"split_type":[0,0,0,0,0,0,0,0,0],"sum_hessian":[7.6067476E0,6.036929E0,1.5698185E0,4.854864E0,1.1820651E0,3.59215E0,1.262714E0,1.1126616E0,2.4794884E0],"tree_param":{"num_deleted":"0","num_feature":"173","num_nodes":"9","size_leaf_vector":"1"}},{"base_weights":[-1.9324107E-2,5.6853842E-2,-6.0558017E-2,1.495844E-1,-6.885888E-2,2.743763E-1,-4.1083474E-2,1.0754954E-1,5.0397506E-3],"categories":[],"categories_nodes":[],"categories_segments":[],"categories_sizes":[],"default_left":[0,0,0,0,0,0,0,0,0],"id":43,"left_children":[1,3,-1,5,-1,7,-1,-1,-1],"loss_changes":[1.2868439E-1,2.1298964E-1,0E0,2.40933E-1,0E0,8.703613E-2,0E0,0E0,0E0],"parents":[2147483647,0,0,1,1,3,3,5,5],"right_children":[2,4,-1,6,-1,8,-1,-1,-1],"split_conditions":[1.6455849E-1,5.179261E-2,-6.0558017E-2,1E0,-6.885888E-2,1.8164709E-1,-4.1083474E-2,1.0754954E-1,5.0397506E-3],"split_indices":[22,61,0,7,0,23,0,0,0],"split_type":[0,0,0,0,0,0,0,0,0],"sum_hessian":[7.4290586E0,5.7273784E0,1.7016803E0,4.687311E0,1.040067E0,3.294761E0,1.3925503E0,2.18828E0,1.1064808E0],"tree_param":{"num_deleted":"0","num_feature":"173","num_nodes":"9","size_leaf_vector":"1"}},{"base_weights":[-2.042705E-2,1.0755098E-1,-1.0258613E-1,-7.970237E-3,5.110857E-2,5.916578E-2,-3.0262727E-1,-1.1157312E-1,-1.782736E-2],"categories":[],"categories_nodes":[],"categories_segments":[],"categories_sizes":[],"default_left":[0,0,0,0,0,0,0,0,0],"id":44,"left_children":[1,3,5,-1,-1,-1,7,-1,-1],"loss_changes":[9.784707E-2,3.583269E-2,3.9194992E-1,0E0,0E0,0E0,4.0539652E-2,0E0,0E0],"parents":[2147483647,0,0,1,1,2,2,6,6],"right_children":[2,4,6,-1,-1,-1,8,-1,-1],"split_conditions":[4.12E2,1.4876842E-1,1.5772368E-4,-7.970237E-3,5.110857E-2,5.916578E-2,1.4440344E-1,-1.1157312E-1,-1.782736E-2],"split_indices":[6,32,32,0,0,0,33,0,0],"split_type":[0,0,0,0,0,0,0,0,0],"sum_hessian":[7.256537E0,2.7163146E0,4.540222E0,1.0504155E0,1.665899E0,1.8226657E0,2.7175567E0,1.7031476E0,1.0144091E0],"tree_param":{"num_deleted":"0","num_feature":"173","num_nodes":"9","size_leaf_vector":"1"}},{"base_weights":[-1.8461548E-2,5.1325224E-2,-5.418395E-2,8.4947556E-2,-4.7098942E-2,1.230467E-1,-2.0862809E-1,5.790313E-2,9.1502425E-4,-9.588195E-2,1.4863599E-3],"categories":[],"categories_nodes":[],"categories_segments":[],"categories_sizes":[],"default_left":[0,0,0,0,0,0,0,0,0,0,0],"id":45,"left_children":[1,3,-1,-1,5,7,9,-1,-1,-1,-1],"loss_changes":[1.0104536E-1,1.6048232E-1,0E0,0E0,1.7364788E-1,2.6706316E-2,7.584588E-2,0E0,0E0,0E0,0E0],"parents":[2147483647,0,0,1,1,4,4,5,5,6,6],"right_children":[2,4,-1,-1,6,8,10,-1,-1,-1,-1],"split_conditions":[1.6455849E-1,3.1E2,-5.418395E-2,8.4947556E-2,1.4566465E-1,3.1316735E-2,1.6128598E-1,5.790313E-2,9.1502425E-4,-9.588195E-2,1.4863599E-3],"split_indices":[22,6,0,0,23,32,32,0,0,0,0],"split_type":[0,0,0,0,0,0,0,0,0,0,0],"sum_hessian":[7.1102014E0,5.4486756E0,1.6615258E0,1.0644636E0,4.384212E0,2.2511823E0,2.1330295E0,1.0376928E0,1.2134897E0,1.0770061E0,1.0560234E0],"tree_param":{"num_deleted":"0","num_feature":"173","num_nodes":"11","size_leaf_vector":"1"}},{"base_weights":[-1.3893305E-2,5.50669E-2,-5.1492784E-2,-5.7627153E-2,1.5238342E-1,2.6192465E-1,-2.7338864E-2,1.0604095E-1,2.3976807E-2],"categories":[],"categories_nodes":[],"categories_segments":[],"categories_sizes":[],"default_left":[0,0,0,0,0,0,0,0,0],"id":46,"left_children":[1,3,-1,-1,5,7,-1,-1,-1],"loss_changes":[9.605906E-2,1.8072517E-1,0E0,0E0,1.5925764E-1,3.4377962E-2,0E0,0E0,0E0],"parents":[2147483647,0,0,1,1,4,4,5,5],"right_children":[2,4,-1,-1,6,8,-1,-1,-1],"split_conditions":[7.364795E-2,9.609225E-1,-5.1492784E-2,-5.7627153E-2,1.5067034E0,3.3261455E-4,-2.7338864E-2,1.0604095E-1,2.3976807E-2],"split_indices":[93,166,0,0,166,23,0,0,0],"split_type":[0,0,0,0,0,0,0,0,0],"sum_hessian":[6.9613767E0,5.296799E0,1.6645775E0,1.2212597E0,4.0755396E0,2.7588823E0,1.3166572E0,1.208765E0,1.5501173E0],"tree_param":{"num_deleted":"0","num_feature":"173","num_nodes":"9","size_leaf_vector":"1"}},{"base_weights":[-1.0363842E-2,-7.503312E-2,5.197128E-2,-1.5779284E-1,2.9571222E-2,-2.670997E-1,2.461232E-2,-8.690731E-3,-1.1340385E-1],"categories":[],"categories_nodes":[],"categories_segments":[],"categories_sizes":[],"default_left":[0,0,0,0,0,0,0,0,0],"id":47,"left_children":[1,3,-1,5,-1,7,-1,-1,-1],"loss_changes":[1.06099136E-1,1.08890936E-1,0E0,1.4732158E-1,0E0,8.2046986E-2,0E0,0E0,0E0],"parents":[2147483647,0,0,1,1,3,3,5,5],"right_children":[2,4,-1,6,-1,8,-1,-1,-1],"split_conditions":[2.0646904E-1,2.2363685E-2,5.197128E-2,1.8695161E-1,2.9571222E-2,4.11E2,2.461232E-2,-8.690731E-3,-1.1340385E-1],"split_indices":[15,56,0,153,0,6,0,0,0],"split_type":[0,0,0,0,0,0,0,0,0],"sum_hessian":[6.8411226E0,5.496453E0,1.3446698E0,3.783753E0,1.7126999E0,2.5210645E0,1.2626884E0,1.2018589E0,1.3192056E0],"tree_param":{"num_deleted":"0","num_feature":"173","num_nodes":"9","size_leaf_vector":"1"}},{"base_weights":[-1.0043063E-2,-6.42338E-2,5.2968144E-2,-1.2184782E-1,3.6282774E-2,-2.6275265E-1,8.228384E-2,-1.7958462E-2,-1.04558736E-1,3.670621E-2,-1.3586859E-5],"categories":[],"categories_nodes":[],"categories_segments":[],"categories_sizes":[],"default_left":[0,0,0,0,0,0,0,0,0,0,0],"id":48,"left_children":[1,3,-1,5,-1,7,9,-1,-1,-1,-1],"loss_changes":[8.94101E-2,8.63888E-2,0E0,1.8328325E-1,0E0,4.1156456E-2,1.00897495E-2,0E0,0E0,0E0,0E0],"parents":[2147483647,0,0,1,1,3,3,5,5,6,6],"right_children":[2,4,-1,6,-1,8,10,-1,-1,-1,-1],"split_conditions":[3.0700874E-2,1.9256516E-1,5.2968144E-2,5.75E2,3.6282774E-2,1.4566465E-1,5.0952148E-2,-1.7958462E-2,-1.04558736E-1,3.670621E-2,-1.3586859E-5],"split_indices":[149,23,0,6,0,23,56,0,0,0,0],"split_type":[0,0,0,0,0,0,0,0,0,0,0],"sum_hessian":[6.7202854E0,5.716078E0,1.0042078E0,4.620492E0,1.0955857E0,2.5636933E0,2.0567987E0,1.2663097E0,1.2973837E0,1.0564563E0,1.0003422E0],"tree_param":{"num_deleted":"0","num_feature":"173","num_nodes":"11","size_leaf_vector":"1"}},{"base_weights":[-7.112704E-3,5.9839327E-2,-4.9802978E-2,1.973766E-1,-7.925931E-2,9.100292E-2,-4.917484E-3,-7.4054375E-2,3.410024E-2],"categories":[],"categories_nodes":[],"categories_segments":[],"categories_sizes":[],"default_left":[0,0,0,0,0,0,0,0,0],"id":49,"left_children":[1,3,-1,5,7,-1,-1,-1,-1],"loss_changes":[9.095062E-2,1.3220903E-1,0E0,8.086109E-2,1.4907047E-1,0E0,0E0,0E0,0E0],"parents":[2147483647,0,0,1,1,3,3,4,4],"right_children":[2,4,-1,6,8,-1,-1,-1,-1],"split_conditions":[1.6455849E-1,4.57E2,-4.9802978E-2,1.7837209E-1,1E0,9.100292E-2,-4.917484E-3,-7.4054375E-2,3.410024E-2],"split_indices":[22,6,0,32,5,0,0,0,0],"split_type":[0,0,0,0,0,0,0,0,0],"sum_hessian":[6.6154313E0,5.092917E0,1.5225142E0,2.3501647E0,2.7427526E0,1.2911192E0,1.0590453E0,1.318194E0,1.4245584E0],"tree_param":{"num_deleted":"0","num_feature":"173","num_nodes":"9","size_leaf_vector":"1"}},{"base_weights":[-5.4685487E-3,5.640167E-2,-5.8405153E-2,1.476904E-1,-4.5805506E-2,-2.0697728E-2,2.4989264E-1,1.16750814E-1,-5.715112E-3],"categories":[],"categories_nodes":[],"categories_segments":[],"categories_sizes":[],"default_left":[0,0,0,0,0,0,0,0,0],"id":50,"left_children":[1,3,-1,5,-1,-1,7,-1,-1],"loss_changes":[9.876399E-2,1.4520796E-1,0E0,1.275576E-1,0E0,0E0,1.4230832E-1,0E0,0E0],"parents":[2147483647,0,0,1,1,3,3,6,6],"right_children":[2,4,-1,6,-1,-1,8,-1,-1],"split_conditions":[2.3959083E-2,1E0,-5.8405153E-2,5.802804E-2,-4.5805506E-2,-2.0697728E-2,1.6597727E-1,1.16750814E-1,-5.715112E-3],"split_indices":[157,7,0,32,0,0,23,0,0],"split_type":[0,0,0,0,0,0,0,0,0],"sum_hessian":[6.4985094E0,5.426163E0,1.0723462E0,3.981467E0,1.4446964E0,1.3801985E0,2.6012685E0,1.4192519E0,1.1820165E0],"tree_param":{"num_deleted":"0","num_feature":"173","num_nodes":"9","size_leaf_vector":"1"}},{"base_weights":[-5.135352E-3,6.888251E-2,-5.1188763E-2,-3.751111E-2,7.625514E-2,8.693382E-2,-6.5768346E-2,7.092494E-2,-4.0708367E-2],"categories":[],"categories_nodes":[],"categories_segments":[],"categories_sizes":[],"default_left":[0,0,0,0,0,0,0,0,0],"id":51,"left_children":[1,3,-1,5,-1,7,-1,-1,-1],"loss_changes":[1.01825826E-1,1.2374623E-1,0E0,1.2198585E-1,0E0,1.4581315E-1,0E0,0E0,0E0],"parents":[2147483647,0,0,1,1,3,3,5,5],"right_children":[2,4,-1,6,-1,8,-1,-1,-1],"split_conditions":[7.364795E-2,2.2363685E-2,-5.1188763E-2,1E0,7.625514E-2,4.12E2,-6.5768346E-2,7.092494E-2,-4.0708367E-2],"split_indices":[93,56,0,5,0,6,0,0,0],"split_type":[0,0,0,0,0,0,0,0,0],"sum_hessian":[6.353153E0,4.7931647E0,1.5599881E0,3.5515528E0,1.2416122E0,2.4175444E0,1.1340084E0,1.4093264E0,1.0082179E0],"tree_param":{"num_deleted":"0","num_feature":"173","num_nodes":"9","size_leaf_vector":"1"}},{"base_weights":[-4.9724216E-3,5.3535286E-2,-5.340843E-2,1.24324374E-1,-2.768867E-2,-6.923557E-3,1.8387735E-1,7.7400975E-2,3.435887E-3],"categories":[],"categories_nodes":[],"categories_segments":[],"categories_sizes":[],"default_left":[0,0,0,0,0,0,0,0,0],"id":52,"left_children":[1,3,-1,5,-1,-1,7,-1,-1],"loss_changes":[8.268469E-2,7.515161E-2,0E0,4.44363E-2,0E0,0E0,4.015103E-2,0E0,0E0],"parents":[2147483647,0,0,1,1,3,3,6,6],"right_children":[2,4,-1,6,-1,-1,8,-1,-1],"split_conditions":[7.5882144E-4,7.43E2,-5.340843E-2,9.788344E-1,-2.768867E-2,-6.923557E-3,1.4541014E-1,7.7400975E-2,3.435887E-3],"split_indices":[10,6,0,166,0,0,33,0,0],"split_type":[0,0,0,0,0,0,0,0,0],"sum_hessian":[6.2250123E0,5.1683216E0,1.0566905E0,3.5786514E0,1.5896704E0,1.2060242E0,2.3726273E0,1.3121864E0,1.0604408E0],"tree_param":{"num_deleted":"0","num_feature":"173","num_nodes":"9","size_leaf_vector":"1"}},{"base_weights":[-4.3833577E-3,-6.305318E-2,4.7205903E-2,-6.285262E-2,3.1436484E-2,5.4225188E-2,-3.3881623E-2],"categories":[],"categories_nodes":[],"categories_segments":[],"categories_sizes":[],"default_left":[0,0,0,0,0,0,0],"id":53,"left_children":[1,3,-1,-1,5,-1,-1],"loss_changes":[7.7850066E-2,8.916065E-2,0E0,0E0,1.1734578E-1,0E0,0E0],"parents":[2147483647,0,0,1,1,4,4],"right_children":[2,4,-1,-1,6,-1,-1],"split_conditions":[2.0646904E-1,3.77E2,4.7205903E-2,-6.285262E-2,1.5772368E-4,5.4225188E-2,-3.3881623E-2],"split_indices":[15,6,0,0,32,0,0],"split_type":[0,0,0,0,0,0,0],"sum_hessian":[6.158621E0,4.9669933E0,1.1916273E0,1.4705023E0,3.496491E0,1.594989E0,1.9015021E0],"tree_param":{"num_deleted":"0","num_feature":"173","num_nodes":"7","size_leaf_vector":"1"}},{"base_weights":[-2.4649298E-3,6.350556E-2,-4.740405E-2,6.0256656E-2,-5.8239855E-2,3.3777557E-2,-6.224179E-2],"categories":[],"categories_nodes":[],"categories_segments":[],"categories_sizes":[],"default_left":[0,0,0,0,0,0,0],"id":54,"left_children":[1,3,-1,-1,5,-1,-1],"loss_changes":[8.272999E-2,1.0680713E-1,0E0,0E0,1.1999055E-1,0E0,0E0],"parents":[2147483647,0,0,1,1,4,4],"right_children":[2,4,-1,-1,6,-1,-1],"split_conditions":[1.6455849E-1,4.12E2,-4.740405E-2,6.0256656E-2,6.117174E-2,3.3777557E-2,-6.224179E-2],"split_indices":[22,6,0,0,32,0,0],"split_type":[0,0,0,0,0,0,0],"sum_hessian":[6.084192E0,4.68777E0,1.396422E0,1.8973876E0,2.7903821E0,1.415519E0,1.374863E0],"tree_param":{"num_deleted":"0","num_feature":"173","num_nodes":"7","size_leaf_vector":"1"}},{"base_weights":[-4.0072068E-3,6.295831E-2,-4.550054E-2,-3.9398048E-2,1.5614368E-1,8.081629E-2,1.5669042E-3],"categories":[],"categories_nodes":[],"categories_segments":[],"categories_sizes":[],"default_left":[0,0,0,0,0,0,0],"id":55,"left_children":[1,3,-1,-1,5,-1,-1],"loss_changes":[7.879781E-2,1.2052962E-1,0E0,0E0,7.021617E-2,0E0,0E0],"parents":[2147483647,0,0,1,1,4,4],"right_children":[2,4,-1,-1,6,-1,-1],"split_conditions":[7.364795E-2,3.49E2,-4.550054E-2,-3.9398048E-2,3.3261455E-4,8.081629E-2,1.5669042E-3],"split_indices":[93,6,0,0,23,0,0],"split_type":[0,0,0,0,0,0,0],"sum_hessian":[6.0031896E0,4.5247917E0,1.4783977E0,1.3340602E0,3.1907315E0,1.3744475E0,1.8162842E0],"tree_param":{"num_deleted":"0","num_feature":"173","num_nodes":"7","size_leaf_vector":"1"}},{"base_weights":[-3.0199646E-3,-6.413974E-2,4.8527293E-2,-5.7951365E-2,2.0587416E-2,5.470719E-2,-3.716443E-2],"categories":[],"categories_nodes":[],"categories_segments":[],"categories_sizes":[],"default_left":[0,0,0,0,0,0,0],"id":56,"left_children":[1,3,-1,-1,5,-1,-1],"loss_changes":[8.022224E-2,6.711151E-2,0E0,0E0,1.2517963E-1,0E0,0E0],"parents":[2147483647,0,0,1,1,4,4],"right_children":[2,4,-1,-1,6,-1,-1],"split_conditions":[2.0646904E-1,9.7864246E-1,4.8527293E-2,-5.7951365E-2,1.2700894E0,5.470719E-2,-3.716443E-2],"split_indices":[15,166,0,0,166,0,0],"split_type":[0,0,0,0,0,0,0],"sum_hessian":[5.9353566E0,4.7749634E0,1.1603932E0,1.3853244E0,3.389639E0,1.4753485E0,1.9142904E0],"tree_param":{"num_deleted":"0","num_feature":"173","num_nodes":"7","size_leaf_vector":"1"}},{"base_weights":[-9.610372E-4,6.354793E-2,-4.6261884E-2,1.4642897E-1,-4.084678E-2,7.675174E-2,-1.9554047E-2],"categories":[],"categories_nodes":[],"categories_segments":[],"categories_sizes":[],"default_left":[0,0,0,0,0,0,0],"id":57,"left_children":[1,3,-1,5,-1,-1,-1],"loss_changes":[7.767994E-2,1.1164187E-1,0E0,1.18483305E-1,0E0,0E0,0E0],"parents":[2147483647,0,0,1,1,3,3],"right_children":[2,4,-1,6,-1,-1,-1],"split_conditions":[1.6455849E-1,1E0,-4.6261884E-2,1.8164709E-1,-4.084678E-2,7.675174E-2,-1.9554047E-2],"split_indices":[22,7,0,23,0,0,0],"split_type":[0,0,0,0,0,0,0],"sum_hessian":[5.8665338E0,4.5405126E0,1.3260213E0,3.397325E0,1.1431874E0,2.101665E0,1.2956599E0],"tree_param":{"num_deleted":"0","num_feature":"173","num_nodes":"7","size_leaf_vector":"1"}},{"base_weights":[-4.8816595E-3,-6.627269E-2,4.211485E-2,-5.7592243E-2,5.7531483E-2,7.022741E-2,-4.6085253E-2],"categories":[],"categories_nodes":[],"categories_segments":[],"categories_sizes":[],"default_left":[0,0,0,0,0,0,0],"id":58,"left_children":[1,3,-1,-1,5,-1,-1],"loss_changes":[6.9826744E-2,9.5857486E-2,0E0,0E0,1.6700411E-1,0E0,0E0],"parents":[2147483647,0,0,1,1,4,4],"right_children":[2,4,-1,-1,6,-1,-1],"split_conditions":[1.6380447E-1,6.02E2,4.211485E-2,-5.7592243E-2,1.5772368E-4,7.022741E-2,-4.6085253E-2],"split_indices":[32,6,0,0,32,0,0],"split_type":[0,0,0,0,0,0,0],"sum_hessian":[5.7866826E0,4.4498754E0,1.3368074E0,1.9347988E0,2.5150764E0,1.3105543E0,1.2045221E0],"tree_param":{"num_deleted":"0","num_feature":"173","num_nodes":"7","size_leaf_vector":"1"}},{"base_weights":[-2.137713E-3,6.19064E-2,-4.207325E-2,-3.367127E-2,6.625637E-2,8.050434E-2,-5.9043773E-2,4.5561537E-2,-9.938336E-3],"categories":[],"categories_nodes":[],"categories_segments":[],"categories_sizes":[],"default_left":[0,0,0,0,0,0,0,0,0],"id":59,"left_children":[1,3,-1,5,-1,7,-1,-1,-1],"loss_changes":[6.7956984E-2,8.7531105E-2,0E0,9.3334E-2,0E0,3.0633643E-2,0E0,0E0,0E0],"parents":[2147483647,0,0,1,1,3,3,5,5],"right_children":[2,4,-1,6,-1,8,-1,-1,-1],"split_conditions":[7.364795E-2,2.2363685E-2,-4.207325E-2,1E0,6.625637E-2,3.88E2,-5.9043773E-2,4.5561537E-2,-9.938336E-3],"split_indices":[93,56,0,5,0,6,0,0,0],"split_type":[0,0,0,0,0,0,0,0,0],"sum_hessian":[5.701595E0,4.2721972E0,1.4293978E0,3.1601298E0,1.1120672E0,2.1570435E0,1.0030863E0,1.1182177E0,1.0388259E0],"tree_param":{"num_deleted":"0","num_feature":"173","num_nodes":"9","size_leaf_vector":"1"}},{"base_weights":[-1.3599636E-3,-5.97768E-2,4.5296106E-2,2.648951E-2,-4.781239E-2,4.9338378E-2,-4.3522906E-2],"categories":[],"categories_nodes":[],"categories_segments":[],"categories_sizes":[],"default_left":[0,0,0,0,0,0,0],"id":60,"left_children":[1,3,-1,5,-1,-1,-1],"loss_changes":[6.801096E-2,5.1539354E-2,0E0,1.1401355E-1,0E0,0E0,0E0],"parents":[2147483647,0,0,1,1,3,3],"right_children":[2,4,-1,6,-1,-1,-1],"split_conditions":[2.0646904E-1,1E0,4.5296106E-2,1.2700894E0,-4.781239E-2,4.9338378E-2,-4.3522906E-2],"split_indices":[15,5,0,166,0,0,0],"split_type":[0,0,0,0,0,0,0],"sum_hessian":[5.6278543E0,4.50721E0,1.1206443E0,2.8085926E0,1.6986173E0,1.5796568E0,1.2289358E0],"tree_param":{"num_deleted":"0","num_feature":"173","num_nodes":"7","size_leaf_vector":"1"}},{"base_weights":[-4.587392E-4,-7.8771845E-2,4.0765636E-2,3.8378883E-2,-7.798695E-2,-2.4345132E-2,4.898052E-2],"categories":[],"categories_nodes":[],"categories_segments":[],"categories_sizes":[],"default_left":[0,0,0,0,0,0,0],"id":61,"left_children":[1,3,-1,5,-1,-1,-1],"loss_changes":[8.08313E-2,1.11960545E-1,0E0,6.9816224E-2,0E0,0E0,0E0],"parents":[2147483647,0,0,1,1,3,3],"right_children":[2,4,-1,6,-1,-1,-1],"split_conditions":[1.4813633E0,7.364795E-2,4.0765636E-2,6.02E2,-7.798695E-2,-2.4345132E-2,4.898052E-2],"split_indices":[166,93,0,6,0,0,0],"split_type":[0,0,0,0,0,0,0],"sum_hessian":[5.567746E0,3.8046792E0,1.7630668E0,2.7893279E0,1.0153512E0,1.6042007E0,1.1851271E0],"tree_param":{"num_deleted":"0","num_feature":"173","num_nodes":"7","size_leaf_vector":"1"}},{"base_weights":[-2.398832E-3,5.8851313E-2,-4.4248447E-2,5.3312454E-2,-6.6784784E-2,-6.711915E-2,3.364119E-2],"categories":[],"categories_nodes":[],"categories_segments":[],"categories_sizes":[],"default_left":[0,0,0,0,0,0,0],"id":62,"left_children":[1,3,-1,-1,5,-1,-1],"loss_changes":[6.642615E-2,9.0769015E-2,0E0,0E0,1.1762875E-1,0E0,0E0],"parents":[2147483647,0,0,1,1,4,4],"right_children":[2,4,-1,-1,6,-1,-1],"split_conditions":[1.6455849E-1,4.57E2,-4.4248447E-2,5.3312454E-2,1E0,-6.711915E-2,3.364119E-2],"split_indices":[22,6,0,0,5,0,0],"split_type":[0,0,0,0,0,0,0],"sum_hessian":[5.497683E0,4.283756E0,1.2139273E0,1.9882874E0,2.2954686E0,1.0894215E0,1.2060469E0],"tree_param":{"num_deleted":"0","num_feature":"173","num_nodes":"7","size_leaf_vector":"1"}},{"base_weights":[-5.570231E-3,-7.291851E-2,3.3943035E-2,2.980631E-2,-5.8885124E-2,5.2436076E-2,-3.3979774E-2],"categories":[],"categories_nodes":[],"categories_segments":[],"categories_sizes":[],"default_left":[0,0,0,0,0,0,0],"id":63,"left_children":[1,3,-1,5,-1,-1,-1],"loss_changes":[5.9619162E-2,6.5506555E-2,0E0,9.108535E-2,0E0,0E0,0E0],"parents":[2147483647,0,0,1,1,3,3],"right_children":[2,4,-1,6,-1,-1,-1],"split_conditions":[1.4813633E0,1E0,3.3943035E-2,4.12E2,-5.8885124E-2,5.2436076E-2,-3.3979774E-2],"split_indices":[166,5,0,6,0,0,0],"split_type":[0,0,0,0,0,0,0],"sum_hessian":[5.4249997E0,3.7074575E0,1.717542E0,2.4367738E0,1.2706839E0,1.1002146E0,1.3365592E0],"tree_param":{"num_deleted":"0","num_feature":"173","num_nodes":"7","size_leaf_vector":"1"}},{"base_weights":[-4.9954085E-3,-5.7030264E-2,4.0373966E-2,2.2018472E-2,-1.5089789E-1,5.888362E-3,-8.346665E-2],"categories":[],"categories_nodes":[],"categories_segments":[],"categories_sizes":[],"default_left":[0,0,0,0,0,0,0],"id":64,"left_children":[1,3,-1,-1,5,-1,-1],"loss_changes":[5.3914785E-2,7.6451816E-2,0E0,0E0,7.998633E-2,0E0,0E0],"parents":[2147483647,0,0,1,1,4,4],"right_children":[2,4,-1,-1,6,-1,-1],"split_conditions":[2.0646904E-1,1.6635667E-4,4.0373966E-2,2.2018472E-2,4.57E2,5.888362E-3,-8.346665E-2],"split_indices":[15,33,0,0,6,0,0],"split_type":[0,0,0,0,0,0,0],"sum_hessian":[5.3666606E0,4.340053E0,1.0266075E0,1.90761E0,2.4324431E0,1.4013946E0,1.0310485E0],"tree_param":{"num_deleted":"0","num_feature":"173","num_nodes":"7","size_leaf_vector":"1"}},{"base_weights":[-6.1887675E-3,4.6382777E-2,-4.02002E-2,-4.256177E-2,1.3812871E-1,6.825724E-2,9.396954E-4],"categories":[],"categories_nodes":[],"categories_segments":[],"categories_sizes":[],"default_left":[0,0,0,0,0,0,0],"id":65,"left_children":[1,3,-1,-1,5,-1,-1],"loss_changes":[4.8608232E-2,1.0963832E-1,0E0,0E0,4.770142E-2,0E0,0E0],"parents":[2147483647,0,0,1,1,4,4],"right_children":[2,4,-1,-1,6,-1,-1],"split_conditions":[1.18156426E-1,3.49E2,-4.02002E-2,-4.256177E-2,3.3261455E-4,6.825724E-2,9.396954E-4],"split_indices":[93,6,0,0,23,0,0],"split_type":[0,0,0,0,0,0,0],"sum_hessian":[5.309155E0,4.2132597E0,1.0958954E0,1.2015046E0,3.011755E0,1.3995533E0,1.6122018E0],"tree_param":{"num_deleted":"0","num_feature":"173","num_nodes":"7","size_leaf_vector":"1"}},{"base_weights":[-6.434135E-3,5.5618748E-2,-4.42422E-2,5.0146256E-2,-6.053884E-2,-5.4034412E-2,2.495576E-2],"categories":[],"categories_nodes":[],"categories_segments":[],"categories_sizes":[],"default_left":[0,0,0,0,0,0,0],"id":66,"left_children":[1,3,-1,-1,5,-1,-1],"loss_changes":[6.295717E-2,7.581638E-2,0E0,0E0,7.028934E-2,0E0,0E0],"parents":[2147483647,0,0,1,1,4,4],"right_children":[2,4,-1,-1,6,-1,-1],"split_conditions":[1.6455849E-1,1.4566465E-1,-4.42422E-2,5.0146256E-2,1.6380447E-1,-5.4034412E-2,2.495576E-2],"split_indices":[22,23,0,0,32,0,0],"split_type":[0,0,0,0,0,0,0],"sum_hessian":[5.2563176E0,4.0709057E0,1.185412E0,1.8528016E0,2.2181041E0,1.0725627E0,1.1455413E0],"tree_param":{"num_deleted":"0","num_feature":"173","num_nodes":"7","size_leaf_vector":"1"}},{"base_weights":[-8.316902E-3,-6.319379E-2,4.149843E-2,-1.3119294E-1,2.2107543E-2,-6.5693974E-2,1.6392414E-2],"categories":[],"categories_nodes":[],"categories_segments":[],"categories_sizes":[],"default_left":[0,0,0,0,0,0,0],"id":67,"left_children":[1,3,-1,5,-1,-1,-1],"loss_changes":[5.8634385E-2,5.80512E-2,0E0,7.4488096E-2,0E0,0E0,0E0],"parents":[2147483647,0,0,1,1,3,3],"right_children":[2,4,-1,6,-1,-1,-1],"split_conditions":[2.0646904E-1,2.2363685E-2,4.149843E-2,6.74087E-2,2.2107543E-2,-6.5693974E-2,1.6392414E-2],"split_indices":[15,56,0,153,0,0,0],"split_type":[0,0,0,0,0,0,0],"sum_hessian":[5.199863E0,4.1979814E0,1.001882E0,2.832499E0,1.3654822E0,1.8026007E0,1.0298983E0],"tree_param":{"num_deleted":"0","num_feature":"173","num_nodes":"7","size_leaf_vector":"1"}},{"base_weights":[-3.6975255E-3,5.2652016E-2,-3.8145743E-2,-2.9819956E-2,5.4984912E-2,-6.758644E-2,3.7621975E-2],"categories":[],"categories_nodes":[],"categories_segments":[],"categories_sizes":[],"default_left":[0,0,0,0,0,0,0],"id":68,"left_children":[1,3,-1,5,-1,-1,-1],"loss_changes":[4.9466427E-2,5.8563773E-2,0E0,1.4601852E-1,0E0,0E0,0E0],"parents":[2147483647,0,0,1,1,3,3],"right_children":[2,4,-1,6,-1,-1,-1],"split_conditions":[1E0,5.2840017E-2,-3.8145743E-2,3.77E2,5.4984912E-2,-6.758644E-2,3.7621975E-2],"split_indices":[7,15,0,6,0,0,0],"split_type":[0,0,0,0,0,0,0],"sum_hessian":[5.1483207E0,3.9286485E0,1.2196724E0,2.8813035E0,1.0473449E0,1.0755599E0,1.8057436E0],"tree_param":{"num_deleted":"0","num_feature":"173","num_nodes":"7","size_leaf_vector":"1"}},{"base_weights":[-4.8450273E-3,5.2337896E-2,-3.764049E-2,-2.774693E-2,5.3243864E-2,2.2317275E-2,-3.5571456E-2],"categories":[],"categories_nodes":[],"categories_segments":[],"categories_sizes":[],"default_left":[0,0,0,0,0,0,0],"id":69,"left_children":[1,3,-1,5,-1,-1,-1],"loss_changes":[4.8508335E-2,5.3337716E-2,0E0,4.4168696E-2,0E0,0E0,0E0],"parents":[2147483647,0,0,1,1,3,3],"right_children":[2,4,-1,6,-1,-1,-1],"split_conditions":[7.364795E-2,2.2363685E-2,-3.764049E-2,4.12E2,5.3243864E-2,2.2317275E-2,-3.5571456E-2],"split_indices":[93,56,0,6,0,0,0],"split_type":[0,0,0,0,0,0,0],"sum_hessian":[5.0806136E0,3.8307192E0,1.2498945E0,2.8104424E0,1.0202768E0,1.4079993E0,1.4024433E0],"tree_param":{"num_deleted":"0","num_feature":"173","num_nodes":"7","size_leaf_vector":"1"}},{"base_weights":[-3.0052606E-3,-6.4931475E-2,3.0713532E-2,2.9697882E-2,-5.7353333E-2,-3.2086242E-2,3.9656628E-2],"categories":[],"categories_nodes":[],"categories_segments":[],"categories_sizes":[],"default_left":[0,0,0,0,0,0,0],"id":70,"left_children":[1,3,-1,5,-1,-1,-1],"loss_changes":[4.60779E-2,5.845295E-2,0E0,6.1624385E-2,0E0,0E0,0E0],"parents":[2147483647,0,0,1,1,3,3],"right_children":[2,4,-1,6,-1,-1,-1],"split_conditions":[1.4813633E0,3.1086126E-2,3.0713532E-2,9.7864246E-1,-5.7353333E-2,-3.2086242E-2,3.9656628E-2],"split_indices":[166,93,0,166,0,0,0],"split_type":[0,0,0,0,0,0,0],"sum_hessian":[5.0420218E0,3.4176044E0,1.6244173E0,2.3905227E0,1.0270816E0,1.0058568E0,1.3846661E0],"tree_param":{"num_deleted":"0","num_feature":"173","num_nodes":"7","size_leaf_vector":"1"}},{"base_weights":[-5.350242E-3,4.8343815E-2,-3.8156837E-2,4.7911845E-2,-5.3844694E-2,2.5069034E-2,-5.0849907E-2],"categories":[],"categories_nodes":[],"categories_segments":[],"categories_sizes":[],"default_left":[0,0,0,0,0,0,0],"id":71,"left_children":[1,3,-1,-1,5,-1,-1],"loss_changes":[4.539492E-2,6.423125E-2,0E0,0E0,